tree
version=v4
num_class=1
num_tree_per_iteration=1
label_index=0
max_feature_idx=10
objective=binary sigmoid:1
feature_names=Barrier SP Race_Distance Class Track_Condition Weather Total_Runners JockeyWinRate TrainerWinRate Jockey_ID Trainer_ID
feature_infos=[0:24] [0:251] [800:5500] -1:730:571:626:376:382:778:580:736:510:263:322:739:832:313:728:592:541:513:633:143:212:586:583:660:589:836:354:798:574:637:337:577:45:343:359:602:266:74:567:81:270:482:216:830:517:568:657:333:296:629:632:538:518:523:548:537:387:732:661:146:130:656:606:515:485:573:597:51:358:731:516:564:134:607:514:572:582:662:351:689:265:215:644:789:57:801:310:536:330:545:133:367:424:512:40:116:784:230:339:566:581:646:234:658:319:378:335:50:42:77:723:595:102:345:609:724:292:599:511:601:260:137:488:324:640:565:41:327:121:386:269:663:697:774:649:397:796:293:118:747:316:826:182:268:505:126:605:340:365:695:643:738:369:506:39:364:257:204:149:187:371:315:107:497:17:384:701:374:509:737:341:377:239:395:127:299:338:754:236:463:235:331:357:594:103:307:349:711:702:259:560:391:113:210:648:655:480:627:71:232:43:238:262:440:704:838:222:653:613:550:44:300:508:526:795:403:652:628:323:544:636:827:55:520:787:635:688:211:283:344:717:303:449:76:521:529:563:708:715:353:665:535:763:647:84:420:556:36:110:237:241:264:760:83:507:604:199:256:1:800:370:388:584:312:585:740:777:141:233:252:298:372:173:254:336:478:710:855:112:758:223:261:208:383:503:617:727:267:465:68:221:225:375:797:154:226:166:194:272:231:109:308:361:625:155:277:314:46:75:80:156:721:360:253:764:845:178:394:553:746:793:136:183:227:542:543:603:664:722:743:413:805:157:180:240:680:26:524:685:179:396:849:13:124:334:401:825:135:145:321:402:590:611:35:220:522:530:716:436:469:547:620:779:27:578:668:682:94:496:714:120:452:559:686:824:79:218:325:539:742:189:251:275:733:775:70:598:684:385:400:404:160:405:591:621:744:164:346:470:771:781:835:152:466:528:831:132:347:527:639:670:0:202:363:399:423:525:569:64:205:379:461:540:752:790:82:350:415:421:19:150:278:291:309:332:453:462:479:65:481:489:499:654:67:207:546:21:244:285:490:593:756:33:473:683:691:766:802:844:846:119:209:306:468:729:851:20:106:129:163:172:248:258:467:570:669:18:153:286:302:355:437:615:856:34:52:131:288:493:531:549:579:674:699:30:88:176:185:273:474:718:773:848:61:87:201:281:287:431:588:638:788:828:853:857:32:66:115:123:170:197:228:368:696:757:809:48:63:69:73:271:459:471:498:504:761:799:128:200:329:356:398:429:432:833:89:93:144:282:320:393:494:596:753:56:85:140:168:373:412:417:451:776:850:16:24:101:114:148:219:250:276:294:342:418:444:446:532:706:709:755:837:6:10:72:78:188:213:304:362:495:616:698:749:791:834:843:7:23:37:92:98:108:125:206:380:410:434:464:492:619:645:650:651:666:667:693:745:14:38:151:165:192:224:411:419:472:491:703:770:803:810:814:86:96:97:214:229:297:301:318:408:422:425:441:460:700:712:719:741:762:780:804:806:820:840:59:100:104:171:177:190:191:279:295:317:389:409:426:439:445:477:519:554:557:610:641:672:673:679:720:748:852:47:99:122:161:193 -1:6:12:5:13:4:14:9:0:8:10:11:3:15:2:1 -1:0:2:4:3:5 [4:24] [0:1] [0:1] -1:924:85:304:553:40:524:1250:592:421:538:195:854:513:266:1305:107:555:204:664:293:1218:627:5:440:548:1307:990:410:863:126:678:115:142:899:344:325:519:1211:231:600:529:744:131:28:56:244:119:511:60:868:66:113:713:1013:755:486:1224:770:102:625:1070:136:1238:518:623:1277:578:838:130:848:1273:704:290:209:514:925:72:979:567:740:73:1309:269:301:61:368:118:655:1232:205:746:758:942:120:502:820:1007:641:586:867:1279:1167:1039:321:1064:693:1228:1237:1245:1114:147:1206:552:27:510:1034:1036:539:380:761:760:546:906:458:507:640:1306:544:624:388:734:887:763:542:930:1090:997:719:494:491:615:137:945:336:806:506:751:1235:153:1177:714:1152:723:798:1312:15:515:796:55:896:922:1008:992:447:9:258:505:459:609:312:599:861:1121:1205:247:750:837:808:33:1022:286:341:679:941:969:1258:256:560:775:1274:135:234:13:116:158:816:862:1132:1278:67:747:832:963:1021:797:259:484:528:80:243:245:1035:648:771:805:1197:235:769:836:90:216:17:51:825:1097:819:331:188:38:162:383:614:432:823:186:442:766:1115:842:145:512:307:439:1203:49:128:605:675:132:211:375:1221:434:84:795:1067:707:71:255:668:843:233:362:144:207:691:522:988:41:253:890:1100:571:1004:563:701:1220:839:986:348:487:294:810:1075:1116:10:1151:251:913:1204:1147:306:1179:593:1108:764:1109:1259:517:199:160:1264:1087:150:456:903:933:957:541:638:636:857:1078:1202:657:125:499:671:296:230:161:352:946:1005:289:824:916:411:694:1081:531:163:594:1118:168:934:140:579:752:998:1210:76:871:909:1017:239:1303:395:1269:198:1071:106:673:547:606:1314:1265:26:183:414:712:58:218:437:156:500:370:523:374:48:436:57:366:737:509:1012:419:497:651:337:637:1304:179:187:1136:573:356:193:292:485:25:319:1181:577:724:882:893:52:728:213:489:943:777:1153:322:1066:1313:711:7:91:1:554:895:1215:631:914:182:1135:1266:1209:931:965:31:1143:467:841:37:170:238:809:1161:427:1207:192:944:1280:612:870:537:829:1198:229:568:1281:618:779:801:983:891:1122:1249:530:110:250:339:385:365:1024:948:958:993:1018:1191:11:818:329:558:373:710:62:224:545:167:197:1160:1216:82:242:426:748:700:1051:803:228:232:565:584:223:717:1233:852:100:112:503:858:1256:345:68:166:872:951:175:283:1236:739:856:892:14:74:650:1213:379:1068:347:360:569:807:3:603:6:741:1315:262:501:720:44:457:702:742:462:772:826:947:1262:715:743:1139:1156:649:50:268:730:200:1025:464:645:589:869:203:152:981:1267:398:413:745:1083:574:1027:19:1234:964:980:1112:108:363:1015:1079:1308:36:778:784:792:822:926:92:310:397:1270:602:987:194:217:1000:1276:227:1009:357:520:267:470:564:572:709:897:989:87:191:343:448:490:626:1106:610:1001:246:549:732:767:361:1164:42:469:471:815:846:1169:35:75:556:690:759:1063:493:340:1150:1158:1253:429:756:1144:1171:1246:1254:64:521:559:821:956:1110:260:315:342:726:1124:225:302:387:633:894:994:1010:1029:1138:124:241:978:1080:496:536:585:619:954:1020:1222:670:866:875:908:910:1149:1168:543:716:849:959:1084:372:376:435:576:601:611:996:1037:1104:287:303:972:1072:1082:1286:65:196:952:1217:185:298:643:1031:1248:1288:69:103:104:408:433:736:1023:1148:455:575:656:888:917:1223:291:498:595:1227:219:508:608:811:1101:129:133:164:165:305:309:354:441:516:844:845:1157:1165:1311:59:63:189:201:220:288:327:338:765:101:261:570:725:793:860:904:911:1255:181:252:270:349:504:935 -1:6583:1108:1118:676:3486:6519:4498:2110:946:354:698:6130:353:4377:4304:4363:5070:367:5517:2850:6548:1545:958:229:4662:5133:1165:759:728:5022:2824:3116:5021:663:5513:4425:5473:2198:3093:1119:6146:26:179:3412:3025:6050:1247:2114:310:352:3063:1507:2150:883:3945:3458:4511:3335:6510:4953:6082:2747:1524:232:2384:3052:4636:3187:1350:2253:5046:1186:2155:1637:5450:467:6634:2900:6493:1813:5472:4278:1306:4358:3753:4355:316:3490:756:4738:6511:2274:3081:6451:5509:5959:3440:634:4513:3037:4362:1087:3478:3754:4477:3788:2952:5106:5555:4010:856:1367:1031:3924:4674:6171:1138:2917:6037:2297:2536:5064:6626:508:6106:6537:382:4294:1161:2226:839:3892:6486:3783:770:1538:3740:6330:1114:1630:697:3125:4985:4639:1526:6512:2517:2136:3724:4673:682:3145:3723:2865:4472:6726:282:5479:6740:4478:225:4950:6715:1910:1590:3739:3062:6358:6551:1090:4367:5956:1629:4965:4970:3752:375:773:1089:3113:4859:1799:4880:5292:319:4123:3076:4357:391:2252:4461:4434:3058:4322:4972:2139:3055:4580:217:5618:1133:3996:5027:6546:1188:2566:1143:4439:5964:397:1800:1101:1609:1684:2879:1142:5934:4376:4430:1091:2002:2427:3789:4361:1598:2265:5461:1549:5496:5006:5072:643:1132:6698:6716:1072:4380:327:2264:3707:4968:4630:4708:1615:4435:561:5302:1158:4517:6086:5459:6068:1304:2475:3164:3399:3764:4836:6114:3471:191:1120:2901:2950:3512:5508:2724:4370:5897:6523:5621:470:1260:1814:2124:2381:3010:1953:2336:4457:4459:6565:536:769:3422:5981:131:3051:4647:1517:4963:1514:3371:4629:6612:1810:3110:3001:5016:1562:1709:4982:46:4352:4698:5118:5587:6126:2196:5033:6016:4098:4455:4680:6113:269:5942:661:1194:5505:5929:825:2986:4077:4338:1006:2162:2232:3083:3099:5253:5411:5468:6083:27:762:2490:6070:1494:3188:4258:836:1525:2214:1542:5031:5916:3492:2296:5017:6490:978:1867:5297:288:700:1040:2302:2781:5260:6134:6614:2953:4725:4795:5518:1129:2203:3089:4349:5510:5573:6116:2861:4260:5052:1064:1141:1275:1572:2221:4837:2219:2888:3988:4510:4993:5872:6136:6321:1569:1724:3991:4274:5997:6099:197:1697:3792:1105:5102:5920:5975:1626:1627:3416:3617:6702:278:2176:3128:3768:3173:3704:5035:5879:6301:2918:3588:3985:4556:5576:302:1023:2857:2928:3079:3705:4371:4739:2272:6140:6434:299:1088:1156:1210:1570:4444:2903:2914:4709:5813:840:1501:2080:2756:2843:3155:3441:3443:6577:1685:2472:5252:5594:6482:1706:2247:2380:5080:5581:6731:1363:3488:3616:4412:4447:4644:5538:1957:3151:3322:4259:6172:764:791:1593:1647:1782:2132:2143:3765:4414:4443:4694:2886:3092:3502:4055:5530:5917:1716:2148:2197:2583:3732:952:2860:5597:6416:4406:5848:5946:6635:296:852:1531:1641:3000:3442:4144:5424:6488:436:3042:3299:6421:6481:300:2157:2894:3693:4981:4591:6137:1579:1694:2122:2699:3148:3250:3913:4146:5614:6722:940:1553:1861:2873:3086:3236:5478:6606:39:573:1803:3338:6066:6675:3503:4499:4689:5963:1391:2744:3426:6142:178:785:1107:5551:6091:6494:3436:4773:5801:6324:380:771:1398:1650:1781:3728:6143:6256:6559:1294:1307:1555:1914:2142:2259:5506:1710:1851:2614:2718:4646:4989:5105:5234:6552:1614:1625:2689:3790:6017:6348:926:2217:3943:4456:4990:5020:6007:6323:344:1171:2428:2863:3900:3990:4401:4448:4490:4508:4649:6034:6090:6129:984:1495:2113:3097:3105:3679:4590:4710:5924:6361:6502:2715:3103:3118:4064:4082:5590:6413:6543:684:716:928:1692:2031:2987:3013:3165:4374:5048:5419:6445:6659:6713:751:786:857:1099:1708:3767:4273:4683:5429:5545:5972:6432:6496:6554:203:314:364:774:1270:3655:5386:5921:6080:6660:817:863:1369:2369:3713:4427:5039:5340:6459:28:267:681:1859:2057:2069:4303:4997:5104:6484:6522:43:221:228:289:1125:1160:3995:4958:5846:6418:137:231:244:307:823:957:1041:1546:1686:2882:5716:6081:6410:6741:151:1550:1795:4505:5076:6399:211:3801:4675:4843:5435:5893:6018:6483:6547:796:1179:1728:2333:2919:3048:3280:3474:3615:3759:4329:5000:5115:5497:6437:572:925:1390:2827:2871:5402:5596:6699:662:972:1052:1109:2932:5447:5973:6294:6572:6733:1766:4672:4876:5374:5979:6021:6071:6471:656:2778:3002:4515:4667:5097:5357:5713:6719:758:1676:2236:2288:3130:3253:3651:3778:5947:5998:6288:6462:1281:1348:2746:3875:4473:4999:5051:5091:5556:5579:6004:6487:576:690:1561:1584:1844:1998:2235:3526:5010:5382:5987:6334:297:753:803:1490:1511:1668:1848:2742:2869:3107:3117:3258:3896:4315:4395:4567:4818:5141:5996:226:506:628:670:673:1320:1510:1608:2764:2890:3085:3688:4637:4829:5008:5134:6076:100:711:885:927:2872:3312:3370:4269:4704:4979:5409:5903:273:1358:1371:1400:2103:2271:2720:3136:3400:3500:3598:3657:4688:4966:5065:5564:6028:6041:6504:303:330:340:558:755:826:1388:1447:1528:1534:1712:2825:5116:5425:6020:6491:6505:6709:1725:2130:2739:3189:3686:4061:4080:5004:5277:5834:6065:6500:488:1117:1522:2070:2912:2940:3019:3144:3466:3746:4320:4685:4932:5427:5469:5514:5548:6131:320:655:724:1172:1551:1563:2545:2867:3509:3570:4433:4467:4617:4654:4770:5123:5440:5565:5901:6049:222:742:815:1154:1628:2056:2375:2811:2911:3080:3692:3793:4669:5439:5460:5475:5521:5976:677:732:971:999:1723:1959:2532:2556:2567:2974:3172:3565:3591:4550:5094:5502:5772:6218:6356:6578:230:448:720:1377:2102:2612:2949:3060:3182:3628:3736:4003:4078:4400:4452:4559:4760:4831:5044:5259:5613:5908:6456:6576:97:239:906:1591:1806:1836:1858:2140:2382:2392:2670:2750:3605:3629:3656:4062:5686:5974:6529:6571:6725:220:270:318:372:768:800:1123:1449:1473:1583:2291:2645:2714:2775:3043:3508:4312:4437:4551:4627:5406:5960:6031:6480:280:368:1086:1126:1485:1612:1939:2282:2841:3031:3087:3420:3751:4280:5954:6055:6575:119:482:686:1776:2770:2909:2976:4008:4143:4275:4335:4596:4889:5241:5287:5471:5759:5775:6145:6467:323:725:1134:1558:1762:1866:2371:2581:2889:4094:4482:4691:4715:5050:6019:6305:6667:60:733:763:1038:1622:2027:2367:3022:3072:3078:3132:3604:3729:5025:5032:5164:5968:6104:6425:6783:122:311:329:653:806:1159:1374:1566:2391:2527:2963:3336:3730:3993:4261:4270:4428:5443:5600:5739:5927:5935:6508:943:1267:1336:1405:1699:2134:2386:2554:2995:4501:4670:4681:4882:4904:5676:5773:5851:6074:6280:120:142:254:468:778:959:997:1256:1535:3157:3262:3362:3453:3499:4453:5303:5341:5541:6236:6556:6604:6738:264:272:370:667:752:1002:1144:1536:1656:1717:1741:1778:1995:2040:2118:2245:4004:4489:4789:4820:5058:5315:5498:5567:5720:5944:6211:6506:6560:483:1942:2108:2569:2661:2790:2842:2845:3682:3748:4319:4509:4803:5878:5904:6296:6507:6600:128:358:726:787:792:983:1025:1480:1516:1654:1671:1688:1965:2010:2120:2131:2216:2257:2263:2267:2422:2743:2968:2996:3096:3632:3712:4034:4059:4345:5324:5836:5855:6053:52:233:284:510:811:1039:1057:1352:1672:1678:1808:2204:2373:2755:2830:2959:3352:3388:3460:3483:4013:4305:4339:4762:4779:4846:4976:4984:5135:5195:5249:5331:5856:5950:6032:6043:6110:6115:6375:6423:6647:6696:553:621:622:652:807:1028:1051:1277:1574:2039:2223:2227:2493:2833:2908:3012:3200:4068:4285:4353:4487:4521:4995:5467:5499:5547:5554:5682:5704:5735:5945:6044:6095:6111:6185:6220:6427:6477:6561:6564:349:968:1286:1422:1620:1785:1794:1951:2211:2262:2539:2540:2880:2948:3360:3364:3593:3659:3720:3743:4041:4327:4553:4569:4776:5034:5244:5481:6369:6401:6541:6557:45:247:378:565:689:795:982:1113:1248:1330:1529:1533:1763:2019:2064:2186:2281:2418:2561:2660:2704:2864:2991:3199:3394:3566:3596:4293:4721:4974:5125:5537:5648:5734:6268:6362:6497:439:631:669:671:696:1181:1273:1327:1838:1934:1947:2170:2187:2240:2411:2509:3540:3757:3786:4366:4612:4632:4705:5075:5412:5422:5488:5550:5589:5668:5994:6029:6069:6222:6248:6446:6453:6492:6528:6708:241:592:642:708:738:884:897:945:1509:1537:2149:2201:2207:2511:2749:2883:2897:3779:4314:4504:4568:4640:4643:4848:4881:5540:5667:5849:5941:5986:6062:6103:6135:6652:93:107:123:194:574:1076:1102:1263:1459:1600:1923:2385:2768:2910:3016:3108:3122:3365:3719:4150:4313:4994:5014:5570:6109:6385:6448:6452:6460:6598:6605:341:779:794:1266:1580:2193:2206:2208:2277:2379:2820:2823:3038:3091:3101:3281:3340:3387:3507:3756:4302:4450:4470:4495:4800:5029:5452:5617:5730:5952:5953:5991:6096:6234:6265:6381:6443:6464:6544:6549:6694:644:707:849:1059:1136:1308:1504:1508:1513:1634:1636:1677:1693:2077:2213:2372:2558:2628:2751:2837:3350:3469:3718:3955:4390:4592:4790:5054:5423:5717:5765:5778:5837:5967:6057:6098:6603:6729:216:257:313:490:512:579:675:695:704:1042:1130:1319:1375:1633:1742:1824:1840:2111:2266:2279:2815:2904:2933:2992:2999:3141:3392:3439:3642:3731:3782:4262:4266:4368:4402:4462:4587:4853:4914:4967:5018:5078:5359:5417:5542:5566:6003:6006:6101:6450:6532:6703:6717:338:350:555:1184:1328:1470:1530:1718:1726:2334:2343:2585:2595:2878:3123:3186:3293:3395:3538:4067:4089:4125:4290:4317:4354:4442:4497:4519:4589:4599:4799:4992:5086:5107:5725:5751:6302:6386:6550:6695:6707:32:475:596:638:938:964:1010:1097:1298:1489:1573:1599:1644:1664:1790:1791:1913:2127:2510:2626:2725:2761:2921:3071:3143:3191:3356:3737:3873:4006:4038:4282:4326:4600:4886:4987:5036:5489:5494:5557:5672:5673:5832:5912:5989:6124:6258:6279:6417:6454:6457:6458:6476:6629:6679:40:41:252:315:333:568:679:739:743:765:820:821:1321:1381:1431:1456:1559:1560:1623:1719:2006:2024:2036:2242:2652:2802:2957:2970:3009:3024:3041:3455:3464:4100:4124:4373:4375:4485:4626:4865:4917:4986:5095:5243:5367:5446:5569:5622:5718:5913:5958:6038:6100:6295:6299:6354:6364:6431:6581:6664:6690:6706:47:80:88:237:245:286:387:393:462:624:632:694:767:801:810:911:1011:1034:1047:1170:1174:1264:1394:1554:1670:1920:2059:2133:2141:2228:2270:2535:2557:2647:2819:2829:2858:2893:2969:3005:3065:3098:3131:3149:3276:3290:3351:3761:3895:3897:3950:4424:4641:4707:4835:4870:4928:4962:5120:5208:5365:5456:5532:5992:6078:6102:6433:6466:6613:305:308:345:571:641:775:1149:1373:1472:1616:1735:1771:1883:1946:2001:2052:2178:2283:2430:2534:2648:2836:2924:3195:3549:3609:3681:3803:3841:3969:4023:4057:4145:4544:4561:4563:4656:4665:4774:4816:4822:4860:4898:5067:5088:5098:5288:5476:5666:5786:5805:5891:5922:6367:6654:6657:36:61:135:189:248:309:321:390:395:534:591:812:995:1017:1078:1100:1140:1407:1568:1597:1607:1658:1701:1720:1798:2089:2097:2158:2254:2255:2260:2331:2402:2412:2529:2576:2587:2753:2826:2844:2851:2941:3039:3045:3067:3109:3212:3446:3612:3687:3870:4095:4129:4277:4333:4480:4557:4666:5002:5005:5011:5380:5719:5732:5841:6001:6040:6214:6340:6387:6419:6435:6478:6692:183:202:206:355:712:749:799:818:1001:1037:1083:1094:1124:1498:1515:1711:2015:2050:2378:2423:2494:2500:2584:2615:2675:2727:2852:2892:3021:3355:3404:3414:3431:3614:3670:3808:3887:3942:4103:4111:4408:4426:4527:4624:4638:4655:4919:5280:5327:5528:5745:5847:5896:5943:6052:6058:6060:6138:6263:6314:6426:6517:6569:6700:140:235:322:377:459:509:530:875:951:1012:1044:1092:1145:1185:1493:1571:1793:1917:1922:2317:2364:2387:2609:2683:2705:2887:2960:3015:3044:3082:3124:3154:3301:3376:3401:3454:3461:3462:3684:3747:3795:4271:4301:4364:4474:4503:4687:4808:4844:4877:5082:5121:5232:5421:5692:5737:5928:5955:6064:6087:6309:6332:6405:6485:6489:6611:6770:35:55:63:146:167:199:227:256:438:463:473:560:620:699:713:727:746:1021:1055:1073:1121:1231:1344:1481:1660:1760:1943:2168:2321:2406:2445:2489:2538:2810:2965:2972:2985:3106:3133:3137:3197:3283:3357:3411:3430:3438:3484:3669:3738:3774:3946:3994:3997:4479:4530:4564:4828:4930:5009:5128:5250:5339:5434:5448:5526:5544:5592:5680:5742:5758:5776:5880:5984:6112:6125:6139:6226:6271:6568:6644:6732:2:42:70:171:271:386:497:520:610:623:654:709:731:747:772:777:924:973:1079:1164:1176:1241:1389:1512:1532:1596:1603:1643:1645:1667:1849:1911:1924:1976:2029:2045:2067:2090:2164:2189:2191:2215:2258:2376:2480:2499:2710:2806:2881:2929:3053:3194:3265:3282:3435:3510:3551:3555:3621:3874:3952:4056:4070:4113:4119:4389:4391:4410:4429:4468:4488:4493:4918:4971:5038:5042:5083:5096:5215:5265:5298:5332:5333:5377:5415:5420:5486:5493:5500:5536:5715:5863:5970:6077:6123:6147:6228:6312:6315:6591:6592:6599:6685:81:250:260:262:274:373:453:556:593:611:723:748:947:1033:1066:1115:1310:1368:1385:1421:1540:1541:1577:1586:1679:1696:1705:1715:1852:1982:2135:2225:2229:2318:2326:2370:2435:2501:2578:2598:2617:2735:2766:2896:2964:3341:3434:3468:3473:3480:3482:3485:3501:3584:3650:3666:3763:3902:3923:3935:4002:4005:4071:4116:4318:4500:4622:4885:4959:5030:5049:5089:5093:5235:5255:5328:5385:5398:5428:5453:5484:5490:5527:5560:5675:5746:5762:5831:5868:5869:5876:5898:5923:5931:6039:6079:6122:6276:6308:6414:6513:6516:6534:6676:6678:6781:20:101:153:265:281:287:295:301:326:348:481:544:545:566:614:646:827:888:1000:1032:1283:1392:1450:1466:1565:1592:1796:1801:1820:1827:1931:1935:1991:2076:2125:2160:2280:2285:2401:2498:2548:2636:2662:2828:2854:3104:3138:3146:3150:3162:3327:3349:3366:3418:3424:3450:3506:3600:3643:3777:3791:3888:3907:4007:4019:4063:4073:4108:4132:4141:4321:4336:4409:4502:4910:4922:5109:5130:5191:5242:5251:5284:5323:5355:5384:5438:5442:5457:5485:5501:5520:5533:5534:5584:5586:5711:5838:5859:5881:6097:6249:6257:6311:6339:6411:6465:6470:6641:6648:6653:6721:6780:13:44:108:113:224:292:385:476:533:539:648:685:819:848:891:893:909:955:979:1060:1151:1251:1289:1356:1404:1426:1435:1438:1523:1539:1556:1588:1604:1618:1680:1690:1739:1757:1812:1990:2032:2095:2099:2121:2420:2424:2425:2491:2506:2523:2526:2546:2701:2741:2796:2831:2875:2899:2922:2930:2937:2982:3073:3102:3121:3249:3275:3309:3407:3428:3432:3493:3504:3585:3654:3678:3714:3769:3780:3805:3831:3859:3920:3957:4001:4029:4075:4156:4323:4340:4631:4650:4668:4784:4857:4908:4940:4980:4983:5023:5092:5099:5139:5196:5225:5257:5282:5349:5482:5492:5507:5609:5612:5687:5708:5812:5816:5969:5982:6117:6121:6251:6255:6262:6293:6371:6472:6499:6524:6674:6720:6760:6774:117:133:144:357:361:464:487:537:557:754:781:873:956:994:1030:1046:1048:1074:1116:1226:1261:1309:1325:1341:1452:1502:1520:1521:1581:1704:1759:1846:1928:1973:2072:2112:2154:2233:2518:2633:2653:2694:2767:2938:2980:3059:3277:3307:3328:3374:3379:3554:3611:3691:3717:3773:3857:3876:3940:3941:3960:4000:4121:4134:4135:4138:4142:4287:4342:4344:4379:4416:4419:4432:4460:4464:4516:4526:4635:4804:4863:4920:4939:5001:5062:5108:5113:5228:5233:5414:5431:5441:5487:5523:5585:5712:5843:5915:5933:5971:5985:6009:6072:6151:6235:6239:6333:6355:6360:6370:6380:6441:6521:6531:6536:6680:6775:37:240:343:383:384:405:450:461:469:531:618:635:674:757:760:872:993:1045:1056:1103:1106:1135:1262:1329:1355:1411:1461:1631:1675:1682:1702:1780:1807:1817:1843:1909:1918:2011:2018:2068:2086:2119:2194:2287:2360:2496:2563:2590:2593:2622:2642:2703:2798:2838:2877:2902:2920:2939:3134:3184:3222:3311:3348:3367:3470:3518:3608:3631:3634:3660:3734:3835:3877:3917:3987:3989:4028:4032:4048:4136:4325:4383:4398:4423:4466:4576:4659:4678:4679:4697:4763:4805:4929:4951:5028:5073:5084:5119:5178:5212:5248:5293:5348:5378:5474:5552:5553:5577:5615:5724:5731:5796:5818:5839:5899:5918:5930:6012:6063:6127:6290:6327:6440:6463:6475:6515:6562:6573:115:132:136:268:291:406:445:460:538:609:615:639:649:651:658:766:788:789:816:822:847:889:899:937:1096:1169:1197:1205:1257:1293:1317:1337:1357:1464:1475:1497:1564:1602:1632:1635:1642:1646:1665:1748:1816:1832:1837:1854:1938:2166:2184:2234:2292:2300:2337:2495:2560:2564:2565:2575:2611:2619:2686:2788:2794:2832:2835:2862:2866:2876:2905:2906:2925:2935:2958:2961:2979:2981:3004:3049:3064:3140:3152:3166:3206:3213:3278:3302:3391:3425:3457:3494:3542:3545:3583:3637:3664:3699:3722:3848:3910:3922:3932:3954:3965:4015:4083:4263:4283:4295:4296:4386:4420:4446:4540:4585:4597:4663:4780:4781:4783:4787:4796:4826:4830:4849:4875:4887:4996:5057:5079:5110:5122:5206:5220:5240:5275:5342:5748:5804:5807:5860:5866:5906:5990:6008:6023:6051:6067:6291:6428:6436:6479:6609:6639:6712:6769:6771:6779:72:129:160:190:193:351:376:451:486:492:494:502:522:524:554:583:586:607:647:657:703:721:750:790:859:880:890:917:954:985:1077:1128:1139:1148:1155:1182:1288:1318:1418:1462:1491:1500:1506:1543:1673:1698:1752:1845:1937:2017:2047:2071:2078:2083:2115:2145:2180:2195:2269:2275:2322:2366:2419:2421:2520:2582:2638:2700:2773:2783:2789:2818:2822:2868:2942:3020:3027:3077:3126:3142:3245:3252:3296:3306:3329:3344:3361:3368:3386:3393:3410:3415:3445:3448:3477:3497:3578:3623:3627:3689:3703:3725:3794:3800:3806:3820:3885:3959:4021:4066:4092:4147:4205:4324:4365:4404:4483:4588:4609:4653:4711:4726:4801:4814:4847:4874:4878:4991:5013:5056:5059:5114:5148:5201:5262:5267:5290:5316:5350:5351:5426:5491:5524:5601:5653:5657:5669:5727:5760:5814:5826:6010:6105:6205:6219:6281:6285:6313:6346:6352:6406:6424:6442:6447:6474:6585:6615:6643:6645:6689:24:118:172:188:213:236:266:294:298:363:417:511:550:597:606:608:616:625:660:666:829:844:866:869:879:901:910:921:1019:1035:1068:1075:1085:1137:1290:1305:1316:1332:1359:1387:1393:1402:1408:1427:1492:1544:1601:1613:1652:1657:1662:1666:1687:1783:1797:1853:1862:1879:1932:1996:2022:2037:2048:2058:2151:2181:2188:2466:2512:2513:2537:2543:2544:2573:2577:2610:2654:2659:2759:2772:2817:2849:2884:2975:2994:3017:3030:3056:3061:3066:3088:3090:3135:3153:3235:3237:3254:3286:3305:3452:3472:3520:3528:3553:3561:3760:3770:3784:3854:3934:3947:4054:4087:4118:4148:4162:4212:4276:4288:4316:4351:4359:4369:4385:4388:4407:4469:4471:4492:4512:4598:4602:4603:4625:4664:4677:4702:4769:4810:4841:4866:4906:4975:5007:5026:5043:5068:5103:5117:5207:5238:5266:5268:5329:5358:5361:5362:5393:5404:5449:5463:5477:5543:5561:5603:5693:5705:5709:5750:5829:5867:5870:5919:5948:5957:6013:6024:6075:6164:6246:6286:6329:6336:6341:6343:6357:6363:6366:6461:6501:6533:6538:6588:6590:6622:6642:6655:6656:6661:6677:6693:6704:6711:6736:6778:6782:76:86:91:95:104:125:149:156:192:253:275:335:362:388:454:498:507:527:626:637:640:645:741:744:745:776:780:793:962:963:969:1008:1009:1043:1152:1168:1204:1215:1258:1269:1279:1284:1285:1299:1314:1340:1342:1349:1351:1410:1415:1433:1503:1610:1611:1648:1653:1681:1738:1745:1756:1819:1823:1826:1842:1870:1936:1941:1966:1969:1983:2005:2074:2075:2079:2116:2128:2152:2174:2199:2205:2212:2218:2286:2295:2323:2327:2365:2403:2408:2462:2579:2604:2627:2640:2665:2674:2680:2706:2708:2712:2726:2728:2733:2736:2780:2784:2803:2962:2967:2977:2990:3034:3054:3068:3094:3119:3196:3271:3274:3279:3310:3326:3390:3406:3447:3456:3463:3475:3498:3602:3606:3646:3683:3711:3733:3742:3749:3771:3787:3804:3825:3864:3884:3912:3925:3956:3962:3986:4016:4058:4060:4093:4097:4133:4179:4192:4264:4341:4350:4356:4394:4413:4436:4440:4441:4449:4529:4614:4658:4692:4693:4730:4742:4753:4797:4823:4833:4851:4861:4869:4907:4938:4946:4952:4978:5012:5101:5140:5231:5254:5291:5295:5305:5306:5314:5322:5364:5369:5400:5432:5462:5515:5525:5529:5574:5607:5631:5658:5702:5703:5723:5754:5761:5763:5764:5766:5888:6042:6056:6089:6093:6206:6207:6245:6259:6297:6402:6415:6495:6498:6509:6535:6589:6618:6631:6701:6735:10:23:33:71:73:75:78:89:105:112:130:141:148:155:159:175:205:465:505:535:559:578:717:730:761:798:835:862:877:892:913:914:933:934:942:953:960:966:1061:1062:1069:1111:1162:1207:1221:1224:1254:1287:1291:1302:1311:1382:1396:1436:1443:1453:1455:1476:1484:1582:1589:1674:1700:1753:1769:1772:1773:1787:1825:1857:1860:1878:1882:1893:1929:2046:2060:2063:2092:2093:2126:2137:2169:2231:2244:2248:2261:2359:2374:2405:2416:2515:2516:2541:2570:2599:2657:2672:2677:2719:2737:2808:2834:2839:2847:2891:2923:2947:2978:2993:3006:3014:3028:3029:3069:3074:3112:3160:3177:3198:3220:3224:3225:3242:3255:3261:3287:3289:3295:3313:3314:3319:3331:3382:3385:3397:3402:3405:3427:3459:3467:3511:3532:3557:3567:3573:3581:3597:3626:3645:3665:3694:3721:3745:3766:3785:3799:3816:3843:3889:3899:3905:3937:3938:3963:3964:4009:4043:4072:4074:4085:4106:4109:4126:4155:4227:4251:4268:4284:4309:4384:4396:4421:4463:4484:4486:4496:4506:4525:4574:4582:4583:4615:4618:4660:4696:4703:4712:4736:4741:4747:4786:4788:4792:4794:4802:4811:4821:4827:4839:4899:4911:4934:4969:4973:5019:5063:5069:5132:5137:5163:5270:5326:5388:5430:5433:5444:5458:5516:5522:5604:5610:5628:5674:5683:5700:5755:5768:5777:5782:5822:5825:5830:5858:5889:5907:5911:5988:5995:5999:6002:6014:6022:6033:6088:6119:6141:6149:6212:6240:6320:6326:6331:6350:6374:6382:6430:6520:6526:6527:6555:6574:6587:6596:6610:6616:6628:6637:6638:6727:6734:6743:6746:6747:14:25:31:38:74:82:94:158:165:168:173:177:187:210:243:285:304:312:332:334:365:366:379:392:394:401:472:532:546:582:599:664:691:692:693:701:705:706:710:737:783:813:824:841:845:851:902:941:976:986:991:1014:1022:1029:1054:1071:1082:1084:1110:1180:1195:1203:1232:1253:1271:1292:1295:1301:1313:1334:1354:1360:1362:1386:1406:1412:1424:1432:1439:1458:1469:1474:1483:1527:1595:1640:1649:1659:1661:1689:1713:1750:1767:1779:1804:1829:1831:1847:1850:1933:1993:2000:2004:2008:2012:2023:2051:2066:2085:2156:2167:2251:2299:2315:2339:2350:2383:2390:2409:2415:2429:2441:2451:2464:2476:2524:2550:2568:2632:2637:2669:2671:2681:2684:2722:2729:2782:2785:2799:2895:2907:2926:2936:2951:3008:3011:3035:3040:3070:3095:3120:3163:3180:3190:3205:3251:3259:3260:3288:3294:3297:3303:3334:3377:3378:3381:3398:3409:3451:3465:3476:3496:3517:3524:3564:3569:3625:3640:3644:3663:3744:3750:3758:3762:3807:3817:3829:3833:3871:3904:3915:3918:3921:3929:3933:3936:3939:3944:3968:3972:3983:4018:4024:4035:4037:4090:4101:4102:4104:4149:4152:4157:4172:4199:4206:4247:4265:4343:4346:4360:4415:4422:4465:4494:4572:4573:4575:4608:4623:4651:4724:4765:4775:4785:4812:4855:4864:4888:4895:4897:4921:4923:4926:4931:4935:4936:4937:4945:4961:5003:5040:5055:5077:5081:5112:5127:5145:5198:5211:5214:5216:5224:5226:5227:5237:5247:5269:5271:5274:5278:5308:5312:5313:5335:5353:5354:5366:5372:5445:5454:5495:5512:5563:5578:5606:5656:5689:5749:5784:5799:5828:5835:5861:5871:5940:5951:5977:5993:6210:6216:6238:6244:6250:6275:6282:6284:6328:6335:6376:6377:6400:6407:6422:6438:6444:6530:6567:6579:6580:6607:6627:6636:6723:3:12:49:54:85:99:102:110:143:145:152:163:169:174:176:182:200:212:255:263:306:336:359:409:424:430:442:444:449:452:491:501:518:547:551:585:589:602:604:627:665:688:715:722:814:860:905:919:930:931:939:967:987:1004:1016:1027:1036:1070:1093:1104:1122:1131:1157:1189:1191:1192:1211:1214:1220:1235:1259:1274:1276:1296:1312:1326:1343:1345:1379:1384:1403:1413:1417:1441:1448:1451:1460:1465:1471:1478:1496:1499:1519:1621:1624:1638:1683:1703:1822:1828:1839:1863:1896:1907:1912:1944:1949:1952:1960:1961:1968:1972:1975:1980:2021:2030:2038:2061:2084:2098:2105:2109:2144:2159:2224:2243:2249:2278:2293:2298:2307:2311:2316:2328:2330:2346:2389:2404:2407:2440:2463:2470:2473:2502:2503:2514:2530:2547:2549:2580:2589:2597:2600:2605:2606:2629:2639:2641:2655:2664:2668:2679:2688:2690:2692:2696:2793:2804:2814:2821:2885:2973:2989:3003:3046:3050:3084:3100:3139:3272:3316:3320:3321:3337:3345:3429:3433:3449:3487:3491:3513:3550:3582:3590:3630:3635:3641:3647:3658:3671:3685:3702:3706:3708:3709:3735:3772:3776:3797:3798:3827:3836:3860:3863:3865:3878:3891:3909:3911:3949:3961:3984:4020:4036:4042:4065:4107:4117:4128:4131:4169:4178:4181:4184:4187:4190:4223:4229:4257:4307:4311:4378:4403:4405:4454:4520:4532:4536:4570:4581:4586:4607:4619:4648:4661:4676:4682:4684:4740:4757:4771:4793:4815:4890:4901:4909:4942:4944:4956:4988:5074:5129:5138:5142:5143:5146:5150:5157:5172:5174:5203:5205:5213:5221:5239:5264:5286:5294:5309:5310:5318:5320:5330:5336:5344:5371:5389:5399:5408:5416:5455:5464:5466:5503:5546:5559:5571:5582:5593:5602:5608:5629:5640:5678:5694:5699:5733:5736:5769:5781:5790:5795:5797:5853:5862:5875:5886:5892:5902:5905:5910:5925:5926:5939:5962:5978:5983:6045:6047:6054:6150:6153:6156:6158:6162:6175:6186:6188:6190:6217:6221:6227:6247:6272:6287:6304:6338:6351:6379:6389:6439:6518:6539:6595:6633:6671:6688:6705:6718:6730
tree_sizes=6811 6857 7171 7999 7897 8130 8624 9460 9077 9075 10541 8448 9625 9963 10343 10179 9172 8931 10029 10053 9437 10152 9210 9398 9234 9382 10180 9443 10994 10258 9486 10251 8607 9529 10314 10480 10673 10859 9386 10833 9937 10966 11436 9991 10249 11254 9488 10238 11725 10402 12180 10219 10037 11246 12105 9980 12100 10757 10787 9555 11030 12073 11363 10095 12294 10545 12366 12395 9665 11215 12495 10639 11953

Tree=0
num_leaves=31
num_cat=11
split_feature=1 1 1 1 1 1 8 9 8 8 9 8 1 1 8 9 1 1 8 10 8 10 10 10 7 9 9 9 9 7
split_gain=13718.9 14393.2 9110.66 1980.33 1797.46 1053.76 529.91 446.402 440.523 315.48 314.163 300.154 287.611 265.763 264.833 241.87 239.379 203.417 197.924 188.359 158.371 153.33 151.246 144.514 141.66 139.456 128.694 127.859 125.313 124.713
threshold=6.7500000000000009 1.0150000000000003 3.1500000000000008 1.9750000000000003 18.500000000000004 4.6750000000000007 0.06079192546583851 0 0.047206952904471806 0.29556962025316463 1 0.030816714150047404 1.6250000000000002 2.3750000000000004 0.027510784833118852 2 9.2500000000000018 3.9250000000000003 0.18898809523809523 3 0.018957771787960404 4 5 6 0.19208829365079363 7 8 9 10 0.020725945017182102
decision_type=2 2 2 2 2 2 2 9 2 2 9 2 2 2 2 9 2 2 2 9 2 9 9 9 2 9 9 9 9 2
left_child=1 -1 3 12 6 8 20 24 -4 16 -10 -5 -3 -13 -7 -16 26 28 23 -18 -2 -15 -19 -17 -8 -21 -9 -22 -12 -23
right_child=4 2 5 11 -6 14 7 9 10 -11 17 13 -14 21 15 18 19 22 -20 25 27 29 -24 -25 -26 -27 -28 -29 -30 -31
leaf_value=-2.5417525567382695 -2.5386041039237552 -2.1274522283884347 -2.4728295476468936 -2.4694125633514927 -2.5314932316774565 -2.5242627548030079 -2.4540549412222745 -2.5164182932501862 -2.5068846688293687 -2.2704064596850411 -2.4794395695139393 -2.2728147164921455 -2.2191994950786427 -2.4749487793164802 -2.5254670616806587 -2.5246937995156333 -2.4492643769453153 -2.5102806286124948 -2.3181215022944706 -2.5237990386190288 -2.4578474849964254 -2.534611757830961 -2.4041506797915391 -2.4445734143223405 -2.3746928461931986 -2.4988754715852188 -2.472556062103572 -2.512987642730562 -2.3701423545016063 -2.3206614217320882
leaf_weight=2205.2024788185954 639.36775477230549 141.03492131084204 199.82898695021868 31.734628200531006 7368.6673302054405 121.97997714579105 376.84870988130569 182.04909481108189 64.035946190357208 15.654805429279802 40.305811263620853 295.45788889378309 216.61717195808887 30.955429740250111 93.007961668074131 53.481348864734173 164.2692026719451 37.189017422497272 30.388739950954914 650.13486076891422 104.12924878299236 6.8711136952042571 776.57752000540495 1936.1665013507009 66.090196676552296 4067.6284713372588 1346.3841031417251 2190.3268718495965 850.8138824030757 781.32354699075222
leaf_count=31131 9026 1991 2821 448 104024 1722 5320 2570 904 221 569 4171 3058 437 1313 755 2319 525 429 9178 1470 97 10963 27333 933 57423 19007 30921 12011 11030
internal_value=-2.48773 -2.43326 -2.39135 -2.28574 -2.51283 -2.42913 -2.49881 -2.49121 -2.40246 -2.49458 -2.39451 -2.31778 -2.18302 -2.31347 -2.45263 -2.44849 -2.49514 -2.39075 -2.44497 -2.50054 -2.5166 -2.32813 -2.40825 -2.4467 -2.44322 -2.50238 -2.47787 -2.51047 -2.37367 -2.3246
internal_weight=25084.5 7912.97 5707.77 1503.99 17171.6 4203.78 9802.88 6869.06 1968.75 6426.12 1768.92 1146.34 357.652 1114.61 2235.02 2113.04 6410.47 1704.89 2020.04 4882.03 2933.82 819.15 813.767 1989.65 442.939 4717.76 1528.43 2294.46 891.12 788.195
internal_count=354120 111708 80577 21232 242412 59345 138388 96971 27793 90718 24972 16183 5049 15735 31552 29830 90497 24068 28517 68920 41417 11564 11488 28088 6253 66601 21577 32391 12580 11127
cat_boundaries=0 41 83 123 321 524 727 932 973 1013 1054 1094
cat_threshold=172032 64 0 64 8 524288 2097152 1048576 4 262146 0 0 8192 264192 2560 0 16777216 0 0 0 1 2097152 64 64 0 0 0 134217728 1310720 0 0 0 8192 2147483648 0 0 0 33570816 0 2048 83886080 1152 67108864 128 0 0 0 0 33792 0 0 1572864 4195328 0 65536 0 0 4 0 536870922 65536 0 0 524288 0 8 8 33554432 0 268435456 1074282560 0 1048576 0 134217728 0 2164260866 0 0 0 268435456 0 2 131072 269484032 0 0 0 8388608 16777216 32768 0 2147483648 0 8388608 0 0 0 1048576 33554432 16384 0 0 0 268435456 8448 0 0 262152 0 537133120 268435456 0 0 65600 0 2147483648 0 134250500 2 67108864 32 256 0 0 0 0 0 0 32 0 0 0 0 0 0 0 0 0 0 512 0 0 0 0 0 0 0 0 0 0 0 528384 8192 0 0 0 0 0 0 0 0 0 2 0 0 0 0 0 0 2147483648 0 0 0 0 0 0 0 0 4194304 0 0 4194304 0 0 0 0 0 4194304 0 0 0 0 134217728 0 0 268435456 0 0 0 0 2097152 0 0 0 0 0 0 0 16 0 0 0 0 0 0 0 0 0 0 8192 0 8388608 0 0 0 0 8388608 0 16777216 0 0 0 0 0 16512 2 0 0 0 0 0 0 0 0 1048576 512 0 0 0 0 0 0 0 0 0 0 0 0 0 268435456 0 0 0 0 0 0 0 0 0 0 0 134217728 536870912 0 33554432 0 0 0 0 0 0 0 8192 0 0 0 0 0 0 0 0 0 0 0 0 0 0 8192 0 0 0 0 0 0 0 65536 0 0 0 0 0 4194304 0 0 0 0 0 0 0 67108864 0 0 0 0 0 0 0 0 0 268435456 0 1073741824 0 0 0 0 0 537001984 0 0 0 0 0 0 32 0 0 0 0 0 0 16384 0 2147483648 0 2097152 0 0 0 0 16777216 0 0 0 0 0 0 136 8192 0 0 0 0 0 0 0 0 0 0 0 0 0 262144 0 0 0 0 0 0 0 0 0 0 0 0 0 0 67108864 0 0 0 0 0 0 0 0 0 0 0 0 64 0 0 0 0 0 0 0 0 0 0 0 0 0 0 0 0 65536 0 16777216 0 0 0 0 0 0 2048 0 0 0 0 0 0 0 8388608 0 0 0 0 0 0 0 0 0 0 0 0 0 0 2048 0 0 0 0 0 0 0 0 0 0 0 0 0 262144 0 4194304 0 0 16777216 1073741824 0 0 0 262144 0 0 0 0 0 0 2097152 0 0 0 0 0 0 0 0 0 0 0 0 0 0 0 0 0 0 0 0 0 0 0 0 0 536870912 0 4194304 0 0 0 4456448 0 0 0 0 0 0 0 256 8192 0 0 2 0 0 0 0 0 0 0 0 0 0 0 0 0 0 0 0 0 0 0 0 0 0 0 8388609 0 0 0 0 0 0 0 0 0 0 0 0 0 0 0 32768 1048576 2 0 0 0 0 0 0 0 0 0 0 0 0 0 0 0 0 0 0 0 0 0 0 0 0 0 0 0 0 0 0 0 16 0 0 0 2147483648 2097152 0 0 0 131072 4194304 0 0 524288 0 0 0 0 0 0 0 128 0 0 0 0 0 0 0 0 0 4096 0 0 0 0 0 0 0 0 0 0 0 134217728 0 0 0 0 0 0 262144 32833 0 0 0 0 32 0 16 0 0 0 0 0 0 0 0 65536 0 0 0 16777216 0 65536 0 0 0 0 0 0 0 0 0 0 0 2097152 0 0 0 67108864 0 0 0 0 0 0 0 0 0 0 0 0 0 0 0 67108864 0 0 0 0 0 0 0 0 0 0 0 262144 0 0 0 0 0 0 0 0 0 67108864 0 0 0 0 0 0 16777216 0 0 0 0 1024 0 32768 0 0 2147483648 0 0 0 0 0 0 0 16384 8192 0 0 0 0 0 0 0 0 0 0 0 0 8192 4194304 536870912 0 1048576 0 0 0 264 0 0 0 0 0 0 0 0 0 0 0 0 0 0 65536 0 0 0 0 0 0 0 0 0 0 0 0 0 0 0 0 0 0 256 0 64 0 0 0 0 0 0 0 0 0 0 0 0 0 0 0 0 0 0 0 0 0 128 0 0 16777216 65536 0 0 0 0 0 0 0 0 0 0 0 0 0 0 0 0 0 0 0 0 512 0 0 4096 32768 0 0 0 0 0 0 0 16 33554432 0 0 0 0 8 0 0 0 0 0 0 32 0 0 0 0 0 0 64 0 0 0 0 0 0 0 0 0 0 0 0 0 0 536870912 0 0 0 0 0 0 0 0 0 0 0 0 0 0 0 0 0 1048576 0 268435456 2097152 16777216 16 0 561152 0 1 65536 0 2147483648 0 0 0 67108864 67108994 784 0 524288 0 0 1073742336 38273024 0 0 0 0 268435456 0 0 33554688 1024 2048 0 0 0 0 32 67108868 536870912 128 0 0 1082130432 268435456 12 0 0 0 0 2 0 0 0 0 2064 67108864 512 16842752 65536 2147483648 0 0 524288 0 1572864 3221225472 0 268436480 16388 0 536870912 32768 33554432 2097152 0 33554432 262144 65536 65536 67108864 512 0 64 65536 268435456 67108864 0 0 0 2 256 0 65536 0 0 131264 0 536936448 2 0 536870912 65536 0 0 0 2048 0 262144 0 8 1610616832 0 0 1048576 0 0 8650752 1048576 66560 67108864 67108928 512 0 0 65536 335544320 524288 2149580801 1073741824 0 131072 262144 1073741824 0 0 0 2048 65536 262144 64 0 128 0 268435458 0 0 1073741840 536870912 131072 0 524288 64 2048 4194304 0 0 0 4202496 0 131072
is_linear=0
shrinkage=1


Tree=1
num_leaves=31
num_cat=12
split_feature=1 1 1 1 1 1 8 9 8 9 8 8 1 8 9 8 8 9 9 8 1 1 9 10 9 10 3 7 10 10
split_gain=12032.7 11310.4 6553.11 1582.89 1129.68 907.615 481.06 366.108 322.869 287.552 235.512 227.425 217.53 213.436 211.657 208.384 166.643 158.608 157.277 154.03 146.954 143.106 133.188 132.394 131.939 129.202 124.403 123.478 117.879 110.435
threshold=7.2500000000000009 1.0150000000000003 3.2250000000000005 18.500000000000004 2.2250000000000005 4.9000000000000012 0.082025088722397457 0 0.033354728284124904 1 0.027510784833118852 0.24684873949579833 1.675 0.022347066167290854 2 0.020101010101010102 0.15590277777777778 3 4 0.22474533106960951 9.7500000000000018 3.9250000000000003 5 6 7 8 9 0.020725945017182102 10 11
decision_type=2 2 2 2 2 2 2 9 2 9 2 2 2 2 9 2 2 9 9 2 2 2 9 9 9 9 9 2 9 9
left_child=1 -1 4 6 12 8 13 -8 -4 -10 -7 17 -3 -2 -12 -6 21 -9 -15 25 24 -11 -23 -17 -20 -16 -19 -25 -24 -22
right_child=3 2 5 -5 15 10 7 11 9 16 14 -13 -14 18 19 23 -18 26 20 -21 29 22 28 27 -26 -27 -28 -29 -30 -31
leaf_value=-0.053793974794740164 -0.04900768739263326 0.25028856791234477 -0.010980754918562216 -0.043187880470590162 -0.029746498814253321 -0.03705260633165388 0.050573581588654583 -0.029188706641046943 -0.028045718092964855 0.090279097894358451 -0.034649676039284781 0.13006166469969813 0.18968784382117118 0.03137791460255842 -0.032530255037757541 0.0073251310337233743 0.13315045264547176 0.025441148223441592 0.056824391019567537 0.18859579151870651 0.04459914223201103 -0.017814027738595528 -0.027315702864430937 -0.043755324944652937 -0.008397576513997489 0.035038489092230077 -0.0043327490806741647 0.13629987668918628 0.069699315167256234 -0.026539165806889503
leaf_weight=2106.2011149823666 666.19688635319471 216.53920505940914 114.53564277291298 7099.7395797371864 20.422332674264908 135.70214343070984 322.22795455157757 572.41763299703598 66.220554038882256 850.88527821004391 112.72698814421892 31.394503593444824 468.40465142577887 145.2244999781251 68.180524125695229 33.535799585282803 131.31041517853737 385.10199781507254 75.984998971223831 16.017789483070374 48.153593860566616 51.286920577287674 32.397120676934719 9.6007238104939443 781.48671644926071 2170.7663524001837 3122.9582057073712 1158.2754527702928 997.18896139413118 3106.8937380462885
leaf_count=31131 9795 2298 1603 104024 284 1978 4422 8228 932 10981 1600 405 5416 2012 961 437 1712 5458 1076 198 684 686 448 136 11108 29738 44239 14290 13289 44551
internal_value=-0.000101501 0.0471879 0.0791519 -0.0254267 0.157445 0.0477046 -0.0118062 8.17952e-05 0.0707971 0.075196 0.0270065 -0.0039883 0.208846 -0.0227335 0.030678 0.12863 0.0782664 -0.00502943 -0.0185235 0.0339468 -0.0203571 0.0749409 0.0628663 0.131322 -0.00205316 0.0329921 -0.00100125 0.133675 0.0664132 -0.0253962
internal_weight=25118 8760.2 6654 16357.8 1906.78 4747.22 9258.04 4434.1 2243.82 2129.29 2503.39 4111.87 684.944 4823.94 2367.69 1221.83 2063.07 4080.48 4157.74 2254.96 4012.52 1931.76 1080.87 1201.41 857.472 2238.95 3508.06 1167.88 1029.59 3155.05
internal_count=354120 118118 86987 236002 22861 64126 131978 62752 29651 28048 34475 58330 7714 69226 32497 15147 27116 57925 59431 30897 57419 25404 14423 14863 12184 30699 49697 14426 13737 45235
cat_boundaries=0 41 83 123 163 204 245 448 487 692 718 916 1103
cat_threshold=131168 64 4 0 33554432 524288 2097152 524288 4 262146 0 0 8192 67108864 526336 0 0 0 0 0 1 2097160 64 64 0 0 0 0 262144 0 0 0 8192 0 134217728 0 0 33570816 0 2048 83886080 67109888 0 128 0 1073741824 0 0 2147328 0 0 1572864 0 0 0 0 0 0 0 10 65536 0 0 524288 0 0 8 0 0 268439552 1074282504 0 0 0 0 0 6 0 8388608 0 0 0 8 0 0 0 16777216 0 276824064 16777344 32768 0 0 544 8388608 0 0 0 1048576 33554432 134217728 0 0 0 0 8448 0 1073741832 262152 1073741824 537133056 335544320 64 0 0 0 0 0 134217732 0 67108864 0 65794 0 285212672 2097152 1090519040 0 0 32768 0 0 0 0 0 0 32 0 0 67108866 784 16777216 268959808 268435456 0 256 4718592 0 1048576 2147483648 128 268435456 0 0 536871168 32768 0 0 0 0 0 131072 67174404 0 0 2048 64 256 524288 67108896 1048576 0 0 0 0 2048 2048 2048 536870912 64 1073741824 536870912 0 0 805306368 65536 1073741824 0 0 0 0 1310720 1048576 16 0 32769 0 0 0 0 8388608 0 65536 83886080 0 67108864 65536 66560 268435968 0 32896 0 0 16 0 0 0 0 256 2148532224 1073741824 0 0 131072 131072 0 0 0 134217728 0 2048 0 0 0 0 33 32769 0 0 2147483648 1 1048704 0 67108864 1 0 0 0 0 8 0 0 0 0 268435456 0 0 0 0 0 0 0 536870912 0 0 0 0 0 0 32 0 0 0 0 0 16777216 16384 0 0 0 0 0 0 0 0 16777218 0 0 0 0 0 0 0 8192 4194304 0 0 0 536870912 0 0 0 0 0 0 0 0 262144 0 0 0 0 0 0 0 2147483648 0 0 0 0 0 0 0 0 67108864 0 0 0 0 0 0 0 0 0 0 0 0 0 0 0 0 0 0 0 0 0 0 0 0 0 0 0 0 0 16777216 0 0 0 0 0 0 2048 0 65536 0 0 0 0 0 0 0 0 0 0 0 0 0 0 0 0 4 262144 0 0 0 0 0 0 0 0 0 0 0 0 0 0 0 0 262144 0 4194304 0 0 0 1073741824 0 0 0 0 0 0 0 0 64 0 0 0 0 0 0 0 0 0 0 0 0 0 0 65536 0 4194304 16 0 262144 0 0 268435456 0 0 0 0 536870912 0 4194304 0 0 0 262144 67108864 16777216 512 4194304 512 268435456 131072 0 0 0 0 268435456 0 0 0 2147483712 131072 134217729 8388608 0 0 64 0 0 268435456 4194304 0 24 67108992 32 8 65536 1024 16384 0 2 0 134217728 4096 0 0 0 0 0 0 536870912 32 0 67125248 0 0 0 0 0 0 16777216 0 0 0 0 1024 0 32768 32 0 2147483648 0 0 0 0 0 0 65536 0 8192 0 0 0 0 0 0 0 0 0 0 0 0 8192 0 536870912 0 0 0 0 0 264 0 0 0 0 0 0 0 0 0 0 0 0 0 0 0 0 0 128 0 0 0 0 0 0 0 0 0 0 0 0 0 0 0 64 0 0 0 0 0 134217728 0 0 0 0 0 0 0 0 0 0 0 0 4 0 0 0 0 0 0 134217728 0 65536 0 0 0 0 0 0 0 0 0 0 0 0 0 0 0 0 0 0 0 524288 0 0 0 0 0 0 0 0 0 0 0 0 0 0 0 0 0 0 1048584 0 0 0 0 0 0 32 0 0 0 0 0 1 0 0 0 0 0 0 0 0 0 0 0 0 0 0 67108864 0 0 0 0 0 268435456 0 0 0 0 0 0 0 0 0 0 0 0 1048576 0 33562624 0 3221225472 0 0 1048576 8 16384 32 0 33554432 0 0 32768 1207959552 275 65538 0 16777216 4210688 0 16777216 2048 1342177792 1342177281 0 0 0 0 8 0 0 0 8192 0 0 0 8192 0 0 0 0 0 0 0 0 0 0 0 0 0 0 0 0 4096 16777216 0 0 0 0 8392705 0 4 0 0 0 0 0 0 0 0 0 0 0 0 536870912 0 1048576 2 0 4194304 0 0 0 0 0 0 0 0 0 0 0 0 0 262144 0 0 0 0 0 0 0 0 0 0 0 0 0 0 0 0 0 0 0 2147483648 256 0 0 0 0 4194304 0 0 0 0 0 0 0 0 0 0 0 0 0 0 0 0 0 0 0 0 0 0 0 0 0 0 0 0 131072 0 0 0 0 0 0 0 0 0 0 262144 32768 0 0 512 0 32 0 16 0 0 4 0 0 0 0 0 0 0 0 0 0 0 65536 0 0 0 0 0 0 0 0 0 0 0 2097152 0 0 0 67108864 0 0 0 0 0 0 0 0 0 0 0 0 0 0 0 0 0 0 0 0 0 0 131072 0 0 536870912 0 16384 0 0 0 262144 0 0 0 0 0 0 0 0 0 0 0 0 0 0 0 0 0 0 0 0 0 0 0 16384 0 0 8 524288 0 0 524288 0 0 0 0 0 512 0 2147491840 0 0 0 0 0 2097152 0 0 0 65536 8 0 0 0 0 0 0 0 0 0 0 0 134217728 0 536870912 0 0 0 0 0 0 0 0 0 4096 0 0 0 0 0 0 0 0 0 0 524288 0 0 0 8192 0 0 0 0 0 0 0 0 16777216 0 0 0 0 8 2097152 0 0 0 2 4 0 0 0 268435456 0 0 0 0 0 0 0 0 0 0 0 1024 0 0 0 0 0 0 0 0 0 0 0 512 0 0 0 0 0 0 0 0 0 0 0 0 0 0 0 0 0 0 0 0 0 0 0 0 0 0 0 1048576 0 262144 0 0 0 0 0 0 0 0 0 0 2097152
is_linear=0
shrinkage=0.05


Tree=2
num_leaves=31
num_cat=13
split_feature=1 1 1 1 1 1 8 9 8 8 8 9 9 9 8 8 8 1 9 9 10 10 10 3 9 8 1 10 9 1
split_gain=10619.7 9609.65 4650.35 1533 805.984 600.709 447.96 292.662 282.32 228.573 224.568 223.961 213.882 208.93 179.855 158.772 143.581 142.727 142.088 139.785 135.103 133.383 130.378 124.655 123.841 122.794 118.814 124.921 103.385 99.1245
threshold=7.2500000000000009 1.0150000000000003 3.1500000000000008 18.500000000000004 4.6750000000000007 2.0250000000000004 0.084879923321322673 0 0.03466772711205366 0.027510784833118852 0.022347066167290854 1 2 3 0.22474533106960951 1.0000000180025095e-35 0.022347066167290854 9.7500000000000018 4 5 6 7 8 9 10 0.18898809523809523 3.7250000000000005 11 12 35.000000000000007
decision_type=2 2 2 2 2 2 2 9 2 2 2 9 9 9 2 2 2 2 9 9 9 9 9 9 9 2 2 9 9 2
left_child=1 -1 5 6 8 16 10 -8 -4 -6 -2 -10 -12 -11 18 -7 -3 24 -9 -17 -20 -13 -15 -23 -14 28 -25 -28 -24 -5
right_child=3 2 4 29 9 15 7 14 11 13 12 21 17 22 -16 19 -18 -19 20 -21 -22 23 25 26 -26 -27 27 -29 -30 -31
leaf_value=-0.053581094633467885 -0.048605895407502972 -0.056744870032837208 -0.0097801803927606151 -0.036319239749654467 -0.034648243189112853 -0.054182760978273958 0.047356892098848413 -0.030279308481632558 -0.017321294721505787 -0.031191248625967477 0.032939584593090619 -0.022743976218064559 0.054028741762827126 -0.030331658561659661 0.098859273939077383 0.0060904472043224484 0.1773492769805747 -0.023944496582847256 -0.026292722923931824 0.12005852922346923 0.0041322176501529988 -0.0092053098268006575 0.061991781920176382 0.09353549205548771 -0.00773766367885537 0.11737001391062481 -0.017542707500542785 0.071211786027399207 0.029576925179562119 -0.048367662431907703
leaf_weight=2011.2392882779241 638.81285835057497 6.6199068352580062 113.64512094855309 3267.6439759731293 143.10745827108622 13.567935585975645 310.14224643260241 432.72378422319889 72.433272868394852 127.10719581693411 197.76074264198542 36.663834132254124 79.435484513640404 73.653370514512062 43.194879554212093 39.693027958273888 622.30989895761013 3499.2668598592281 412.05105544626713 1341.427855424583 2683.3549702167511 47.893264949321747 295.61624103039503 774.61061415821314 868.79343558102846 44.848150722682476 43.695797227323055 1162.6261862441897 2144.8051503822207 3574.5508539676666
leaf_count=31131 9795 64 1586 49679 2149 191 4137 6349 1013 1821 2672 456 1078 1047 523 462 5844 51109 5870 14671 38030 583 3921 9204 12415 511 555 14396 28513 54345
internal_value=-0.000174273 0.0429043 0.0702194 -0.0247052 0.0446892 0.134318 -0.0113364 0.00156086 0.0670123 0.0269233 -0.0208102 0.0710944 -0.0169877 0.0302037 -0.00254166 0.116024 0.174885 -0.0192386 -0.00379031 0.117696 1.05163e-05 0.073921 0.0332453 0.0757708 -0.00207515 0.0352435 0.0778612 0.0684418 0.0338787 -0.0426137
internal_weight=25123.3 9115.56 7104.32 16007.7 5080.71 2023.62 9165.54 3881.47 2251.57 2829.14 5284.07 2137.92 4645.26 2686.03 3571.32 1394.69 628.93 4447.5 3528.13 1381.12 3095.41 2065.49 2558.92 2028.83 948.229 2485.27 1980.93 1206.32 2440.42 6842.19
internal_count=354120 118118 86987 236002 65755 21232 131978 54909 27793 37962 77069 26207 67274 35813 50772 15324 5908 64602 50249 15133 43900 25194 33992 24738 13493 32945 24155 14951 32434 104024
cat_boundaries=0 41 82 123 163 203 244 436 646 851 876 916 1123 1164
cat_threshold=96 64 4 1048640 8 524288 2105344 0 8196 262146 0 0 8192 67108864 526336 0 0 0 0 0 1 2097160 0 64 0 0 0 0 262144 0 268435456 0 8192 0 134217728 0 0 33570816 0 2048 83886080 1152 67108864 128 0 1073741824 0 0 33792 0 0 524288 4195328 0 0 0 0 2048 0 536870920 65536 0 0 524288 4096 8 8 33554432 0 268566528 1611153472 0 1048576 0 134217728 0 2147483650 0 0 0 268435456 1 0 0 2048 64 256 524289 67108896 1048576 0 0 0 16779264 2048 67584 2048 536870912 64 1073741824 536870912 1 0 805306368 65536 0 0 4194304 0 0 1310720 1048576 16 0 1 0 0 0 2 8388608 0 0 83886080 0 268435456 0 524288 33554432 0 16777344 33792 0 2151677952 0 8388608 0 0 0 1048576 33554432 16384 0 0 0 268435456 8448 0 0 8650760 1073741824 537133120 335544320 0 0 536870912 0 0 0 134217732 0 67108864 0 256 0 16777216 2097152 1090519040 0 0 557056 0 0 8192 0 0 2048 32 0 0 67108864 784 0 524368 0 0 256 4194304 0 1048576 2147483649 128 268436480 0 0 256 32768 16384 0 0 0 2097152 131072 65540 0 524800 0 0 0 2 2097154 0 0 524288 131072 0 8192 0 512 4194304 0 65536 8650756 0 0 4194312 0 0 0 32 0 0 268435456 1114112 0 33554432 0 16384 1073741824 0 0 67108864 0 0 1 0 0 0 0 0 0 0 258 0 2147483648 0 0 0 0 0 0 0 0 0 0 0 67108880 0 8388608 0 0 0 0 0 0 0 0 0 0 3221225472 0 8192 0 0 0 0 0 0 0 0 0 0 0 0 0 0 32 1073741824 8192 0 0 0 0 0 0 0 0 0 0 0 0 0 0 4194304 512 0 0 0 0 0 0 0 256 0 0 8388608 0 0 0 0 0 0 0 0 0 2097152 0 0 0 0 0 512 0 524288 0 0 0 0 0 128 0 128 0 0 0 0 0 0 0 0 0 0 0 0 0 0 0 0 0 0 0 0 0 0 0 0 0 0 0 65536 0 2112 0 0 1610612736 0 0 0 0 0 0 4194308 0 0 0 0 0 0 0 0 256 0 0 16384 0 0 0 0 0 0 0 0 0 0 0 0 0 16 0 0 0 0 0 0 0 0 0 0 0 0 0 0 0 0 0 0 4 0 0 0 0 0 0 0 0 0 0 0 0 0 0 0 0 0 0 0 0 0 0 0 0 0 0 0 0 0 4096 16777216 0 0 0 0 0 0 0 0 0 0 0 0 4194304 0 0 0 0 4 0 16384 0 0 0 0 4194304 0 0 0 0 0 0 0 0 0 0 1024 0 0 268435456 0 0 0 0 0 0 0 0 0 0 0 0 0 0 0 0 0 0 0 33554432 0 0 0 0 0 0 0 16384 0 0 0 0 0 0 0 0 128 0 0 0 262144 0 16 0 0 0 0 0 0 0 0 0 0 0 0 0 1610612736 0 0 65536 0 0 0 0 0 0 512 0 134217728 512 0 0 0 0 0 0 0 0 0 0 0 0 0 0 0 0 4096 0 0 0 0 0 0 0 0 0 0 0 0 0 2097152 16 67108864 0 0 8192 0 0 0 0 0 0 2147483648 0 0 0 0 0 262144 0 0 0 0 0 0 0 0 0 0 2147483648 0 0 0 1024 8388608 0 0 0 0 2048 0 0 0 0 0 0 536870912 32 0 67125248 0 0 0 0 0 0 16777216 0 0 0 0 1024 0 32768 0 0 2147483648 0 0 0 0 0 0 0 4 8192 0 0 0 0 0 0 0 0 0 0 0 0 8192 4194304 536870912 0 2097152 0 0 0 264 0 0 0 0 0 0 0 0 0 0 0 1048576 0 0 0 0 0 0 0 0 0 0 0 0 0 0 0 0 0 0 0 0 0 256 0 0 0 0 0 0 0 0 0 0 0 0 0 0 0 0 0 0 0 0 0 0 0 0 0 0 32768 65536 0 0 0 0 0 0 0 0 0 0 0 0 0 0 0 0 0 0 0 8388608 0 0 0 0 0 0 0 0 0 0 0 0 0 33554432 0 0 0 0 8 0 0 0 0 0 0 32 0 0 0 0 0 1 0 67108864 0 0 0 0 0 0 0 0 0 0 0 0 0 0 0 0 0 0 268435456 0 0 0 0 536870912 0 0 0 0 0 0 0 17825792 0 4096 524288 33554432 131072 134217728 1073807360 0 134220032 1054720 0 532736 0 0 131072 0 0 67109376 2097420 1048576 4194304 0 131072 16777222 256 67108864 16777216 0 0 512 268435456 131072 0 0 0 0 268435456 0 0 0 2147483712 131072 134217729 8388608 524288 0 0 0 0 805306368 0 0 134217752 67108992 32 8 65536 1024 16384 0 2 0 134217728 4096 262144 0 0 0 0 8 0 0 0 0 0 0 0 0 0 0 0 0 0 0 0 0 0 0 0 0 0 0 0 0 0 0 0 0 0 0 1 0 0 0 0 16777216 0 0 0 0 0 0 0 0 1073741824 536870912 0 0 0 0 0 0 0 0 0 0 0 0 0 0 0 0 0 0 0 0 0 0 0 0 0 0 0 0 0 0 0 0 0 0 16 0 0 0 2147483648 2097152 0 64 0 0 0 33554432 0 524288 0 0 0 0 0 0 0 0 0 0 0 0 0 0 1 0 0 0 512 0 0 0 0 0 0 0 0 0 0 0 0 0 0 0 16 0 0 65 0 268435456 0 0 0 0 16 0 0 0 0 0 0 0 0 65536 0 4194304 4194304 16777216 0 0 0 0 0 0 0 0 0 0 0 0 8 0 16777216 0 0 0 0 0 0 0 0 0 0 0 0 0 16384 0 0 0 0 0 0 0 0 0 0 0 67239936 0 0 0 0 262144 16384 0 0 1048576 512 0 2097408 131136 524552 0 0 8388608 9 0 0 0 0 0 0 134217728 536870912 528 0 131072 16777216 0 1048576 0 0 0 2147483712 75497472 131072 4 512 2097152 2048 0 1073741824 0 0 134217728 0 1610612736 536870912
is_linear=0
shrinkage=0.05


Tree=3
num_leaves=31
num_cat=15
split_feature=1 1 1 1 1 1 8 9 8 8 9 8 1 9 10 9 10 3 8 8 10 9 10 9 8 10 1 10 9 9
split_gain=9425.09 8276.25 3461.83 1482.93 590.637 474.65 420.84 361.6 234.374 228.752 200.203 185.87 166.966 165.12 140.054 137.552 135.684 126.926 126.287 119.413 117.184 117.161 108.053 107.245 106.466 104.252 101.379 101.227 98.097 95.7975
threshold=7.2500000000000009 1.0150000000000003 3.2250000000000005 18.500000000000004 4.9000000000000012 2.2250000000000005 0.045584415584415554 0 0.017095265926358804 0.11798236405626701 1 0.027510784833118852 9.7500000000000018 2 3 4 5 6 1.0000000180025095e-35 0.1443104962827004 7 8 9 10 0.022347066167290854 11 1.5250000000000001 12 13 14
decision_type=2 2 2 2 2 2 2 9 2 2 9 2 2 9 9 9 9 9 2 2 9 9 9 9 2 9 2 9 9 9
left_child=1 -1 5 6 8 24 -2 -8 -4 12 -10 -6 15 -13 -12 -9 -14 29 -7 23 -15 -18 -5 -16 -3 -17 -26 -25 -22 -11
right_child=3 2 4 22 11 18 7 9 10 17 14 13 16 20 19 25 21 -19 -20 -21 28 -23 -24 27 26 -27 -28 -29 -30 -31
leaf_value=-0.053379407109536564 -0.033979900353340489 -0.043273694704980888 -0.044992563637331451 0.033585226744960665 -0.035702100112813703 -0.053915138064077932 0.035067570335056968 0.051833905559731677 -0.024193261995175557 -0.028066471860406957 -0.030580993808246349 -0.034130800462449921 0.038061002483231507 -0.025301852744999243 0.088028548923860514 0.054560232629495546 0.014565717275101357 0.0025706922499609229 0.096586198608084109 0.098668560735102814 0.060249174055521007 -0.02100305696852646 -0.042520916310341335 -0.019565012351695138 0.1771603435940737 -0.0062955562229134098 0.13449258186607313 0.055955557779983227 0.027019213201802048 0.056031104419125448
leaf_weight=1920.1958079524338 1620.2775840982795 7.7676745951175681 54.966131761670113 43.147764705121517 127.61804943531752 14.072213560342787 493.94087274372578 117.62084560841322 69.906760215759277 37.549428820610046 39.298204429447651 102.78907886892557 98.833497479557991 91.79475998878479 337.91191106289625 64.887158297002316 241.84555346518755 954.55473940074444 1467.0595234334469 220.50310314446688 261.32001243531704 4072.7933399677277 6552.5725447386503 46.318273067474365 172.02984058856964 1168.9445943236351 729.82936277240515 1734.7950345426798 2035.7539288848639 206.05619128793478
leaf_count=31131 24784 81 787 680 1978 209 6535 1622 1000 530 488 1510 1382 1291 3936 917 3464 13456 14938 2469 3312 59845 103344 555 1317 16614 6316 20416 26384 2829
internal_value=-0.000226297 0.03926 0.0629347 -0.0239939 0.03975 0.112615 -0.0108838 -0.00586545 0.0571147 -0.00880683 0.0594067 0.0231515 -0.012951 0.0261658 0.0617058 0.00242616 -0.0176597 0.0110594 0.0951563 0.0633795 0.0287827 -0.0189803 -0.0420366 0.0600065 0.141044 -0.00268224 0.142631 0.0538934 0.0310443 0.0424727
internal_weight=25107 9433.93 7513.73 15673 5122.98 2390.76 9077.3 7457.03 2503.7 6963.09 2448.73 2619.28 5764.92 2491.66 2378.83 1351.45 4413.47 1198.16 1481.13 2339.53 2388.87 4314.64 6595.72 2119.03 909.627 1233.83 901.859 1781.11 2297.07 243.606
internal_count=354120 118118 86987 236002 64126 22861 131978 107194 29651 100659 28864 34475 83844 32497 27864 19153 64691 16815 15147 27376 30987 63309 104024 24907 7714 17531 7633 20971 29696 3359
cat_boundaries=0 41 81 121 331 365 555 582 787 826 1035 1076 1281 1485 1526 1566
cat_threshold=40960 64 0 64 8 524288 0 1048834 0 262144 0 2048 8192 2048 526848 536870912 16777216 0 536870912 1073741826 1 0 64 64 268435456 0 0 0 1310720 0 0 0 8192 0 0 0 0 16384 0 2048 83886080 67109888 0 128 0 1073741824 128 0 2147328 0 0 524288 1024 0 0 0 0 0 0 10 65536 0 0 524288 0 0 8 0 0 268435456 1074282560 0 0 0 2281701376 0 6 0 0 0 270532608 0 0 0 16777216 0 276824064 16777216 32768 0 0 32 8388608 0 0 0 1048576 33554432 0 0 0 0 0 8448 0 1342177288 262280 0 537133056 268435456 64 0 0 0 0 0 134217732 0 67108864 0 65792 0 2048 0 0 0 0 0 0 16777216 0 0 0 0 0 0 4 0 0 0 0 0 131072 0 0 0 0 0 0 0 4096 16777216 0 0 0 0 0 0 0 0 0 0 0 0 0 0 0 0 0 0 4194304 0 0 0 0 0 39845888 0 0 0 0 0 0 16384 0 0 0 0 0 0 268443648 0 0 0 0 0 0 0 0 0 0 0 0 0 0 1073741824 67108864 0 0 0 0 0 0 0 0 0 0 0 0 0 0 0 0 0 0 0 0 128 0 0 0 262144 0 16 0 0 0 0 0 0 0 0 0 0 0 0 0 0 0 0 65536 0 0 0 0 0 0 0 0 0 512 0 0 0 16384 0 0 8 0 0 0 0 0 0 0 0 0 0 0 0 0 0 0 0 0 16 0 0 0 0 0 2097152 144 0 0 67108864 0 0 0 0 0 0 0 0 0 0 0 0 0 262144 0 0 0 0 0 0 0 0 0 0 0 0 0 0 0 25165824 0 0 0 0 2048 0 0 256 524288 257 0 139328 2097280 8196 16777216 0 0 0 0 1024 0 131072 1 1073741824 0 0 0 1073741824 0 0 4194304 65536 134217752 67108864 32 1073741832 65568 2048 16384 0 0 0 0 16384 0 32 0 0 0 8192 0 0 0 0 0 0 512 0 0 536870912 0 0 0 0 0 0 0 536870912 4096 0 0 0 0 0 0 16 16 0 524288 0 0 0 0 0 512 0 2147483648 0 0 0 0 0 0 0 0 4194304 0 0 0 0 0 16384 0 0 0 0 0 0 0 134217728 0 536870912 0 0 0 0 0 0 0 0 0 0 0 0 8388608 16 0 0 0 0 0 0 0 0 0 0 8192 0 0 0 0 0 0 1024 32 16777216 0 0 0 0 0 0 0 0 0 2048 4 8192 0 0 0 0 0 0 0 0 0 4 0 0 0 0 0 0 0 0 0 0 0 0 0 0 0 0 0 256 0 0 0 2147483648 0 0 0 0 0 0 0 0 0 0 0 0 0 0 0 0 0 0 0 0 0 0 0 0 270336 0 0 0 0 32768 0 0 0 0 0 0 0 0 4194304 0 270976 0 1073741824 4 0 26214400 1073741824 16384 0 0 33554432 0 0 0 1207959552 39 2 2 0 7340032 1082261504 16777216 2 1073741824 1073741824 1 0 0 0 0 0 0 0 32 0 67108864 0 2 0 0 0 0 16777216 0 0 0 0 1024 0 32768 32 0 2147483648 0 0 0 0 0 0 65536 0 0 0 0 0 0 0 0 0 0 0 0 0 0 8192 0 536870912 0 0 0 0 0 264 0 0 0 0 0 0 0 0 0 0 0 0 0 0 0 0 0 0 0 0 0 0 0 0 0 0 0 0 0 0 0 0 0 64 0 0 0 0 0 134217728 0 0 0 0 0 0 0 0 0 0 0 1073741824 4 0 0 0 0 0 0 134217728 0 65536 0 0 0 0 0 0 0 0 0 0 0 0 0 0 0 0 0 0 0 526336 0 0 0 0 0 0 0 0 0 0 0 0 0 65536 0 0 0 0 1048584 0 0 0 0 0 0 32 0 0 0 0 0 1 0 0 0 0 0 0 0 0 0 0 0 0 0 0 67108864 0 0 0 0 0 268435456 0 0 0 0 0 0 0 0 0 0 0 0 1048576 0 8388608 67110912 0 33689600 67108873 32 1 0 64 8388608 65552 0 33554432 65536 16384 64 1073741824 0 1 0 536870912 128 1073741824 0 0 512 0 2 0 8389120 0 0 0 134217728 0 4096 0 262144 0 0 0 0 2 0 0 0 2 0 0 0 0 0 134217729 0 0 0 0 0 4096 0 32 0 0 0 0 0 0 0 0 0 0 0 0 0 0 0 0 0 0 0 33554432 0 0 0 0 0 0 4 0 0 0 0 0 0 0 0 0 4194304 0 0 0 0 0 0 0 0 0 524288 0 0 0 0 0 0 0 0 0 0 0 0 0 0 0 0 0 0 0 1024 0 0 0 0 0 0 16777216 0 0 0 0 0 0 0 0 0 0 0 0 0 0 0 134217728 0 0 4608 0 0 0 0 0 8 0 0 0 0 0 262144 0 4456448 0 0 0 36 0 0 0 0 131072 0 0 0 1 0 0 0 0 131072 0 0 0 0 0 0 0 16384 0 1048576 0 0 0 0 0 0 134217728 0 0 0 0 0 0 0 0 0 0 0 0 0 0 128 0 0 0 0 0 2097152 0 0 0 0 0 0 2 0 0 0 0 0 0 0 0 0 0 1024 0 0 0 0 16 134217728 0 768 0 8 0 139264 8912896 0 65540 32 268435456 16 0 0 134219856 67108872 528 0 0 0 0 0 16 4 256 536870912 0 1048576 0 0 2097152 0 0 0 0 0 0 4 536870916 167772160 0 0 0 0 0 0 33554432 0 0 67633152 0 4 0 0 0 0 0 0 0 0 0 0 0 1048576 0 0 0 0 0 262144 0 0 65536 0 0 512 64 0 0 0 16384 0 0 32768 0 0 0 0 0 4 0 0 0 1048576 0 0 0 0 2048 0 0 0 0 0 0 0 1024 0 2097152 0 0 0 0 0 0 0 0 0 0 0 0 0 0 0 0 0 0 0 0 0 0 0 0 0 131072 0 134217728 0 0 0 0 0 0 0 0 0 0 65536 4 0 0 0 0 0 0 0 0 0 4096 0 0 0 0 0 1048576 0 0 0 0 0 0 0 0 8192 65536 0 0 0 0 8192 0 0 0 0 0 0 0 0 0 0 0 0 0 0 0 0 0 0 0 0 0 0 0 0 0 0 0 0 0 0 0 0 0 0 0 0 0 0 0 0 0 0 0 0 0 0 128 0 0 8388608 0 0 0 0 0 0 0 0 0 0 2097152 0 0 0 16777216 0 0 0 0 8 0 0 0 0 0 0 0 0 0 0 0 0 536870912 0 0 0 0 0 0 0 8388608 0 0 0 0 0 0 0 0 2 0 512 0 0 0 134217728 0 0 4194304 0 0 0 0 4 0 0 0 0 0 0 0 0 0 0 0 0 0 0 0 0 0 134217728 0 0 0 0 4 0 0 0 0 0 0 0 0 0 0 0 0 0 16 0 0 0 0 0 0 0 0 0 0 0 64 0 0 0 0 0 0 0 0 0 0 0 0 0 0 0 0 256 0 0 0 4096 0 0 0 0 0 0 0 1073741824 0 134217728 0 0 0 0 0 0 0 1 0 0 8320 0 0 0 0 0 0 0 0 0 0 0 0 0 0 0 0 0 0 0 16384 0 0 0 0 0 4096 0 0 0 0 0 0 67108864 0 0 0 0 0 0 0 0 512 0 0 0 512 0 0 0 0 4 0 0 0 0 65536 0 1073741824 0 0 0 0 458752 1024 512 536870912 2097152 131136 540936 0 32768 2155872384 9 0 0 0 0 0 0 0 536870912 0 0 131072 16777216 0 0 0 0 0 0 8388624 131072 0 520 8192 2048 0 1073741824 0 0 134217728 256 1610612736 536870912 0 16777216 0 655360 0 8 4104 0 1024 73728 32 0 0 0 16384 2181038144 4098 0 0 16 0 0 524289 4194304 0 0 1088 0 805306368 0 0 65536 0 0 0 0 0 4194304 4 2097152
is_linear=0
shrinkage=0.05


Tree=4
num_leaves=31
num_cat=16
split_feature=1 1 1 1 1 1 9 8 9 8 8 9 8 9 3 8 9 8 10 10 10 10 9 1 10 9 9 3 1 9
split_gain=8450.79 6475.07 3587.2 1121.55 542.664 504.624 410.884 300.295 218.767 204.126 178.774 170.584 166.7 162.381 143.054 142.504 145.645 136.243 130.807 124.33 117.614 115.585 114.575 103.809 126.442 101.849 99.6121 97.3816 97.1118 129.219
threshold=8.7500000000000018 1.0150000000000003 3.7250000000000005 18.500000000000004 2.3750000000000004 5.7500000000000009 0 0.105670922754364 1 0.018957771787960404 0.040336248389939662 2 0.013289183222958001 3 4 0.18399271132524161 5 0.023346656976744155 6 7 8 9 10 35.000000000000007 11 12 13 14 1.8750000000000002 15
decision_type=2 2 2 2 2 2 9 2 9 2 2 9 2 9 9 2 9 2 9 9 9 9 9 2 9 9 9 9 2 9
left_child=1 -1 4 6 28 8 -2 10 -4 -10 -8 -7 -6 -14 -9 16 -11 -13 -12 -15 -19 -18 -20 24 -5 -22 -16 -24 -3 -30
right_child=3 2 5 23 12 11 7 14 9 15 18 17 13 19 26 -17 21 20 22 -21 25 -23 27 -25 -26 -27 -28 -29 29 -31
leaf_value=-0.053188190314194264 0.032170549846149012 0.13281799859303295 -0.033085580845941591 0.052597705959307933 -0.046644446865598516 -0.030143837865014206 -0.039419252265590558 0.038483970428542916 -0.041673581822389283 0.072882768480946103 0.039778289691944677 -0.038880486095747901 -0.011353661270712911 -0.010646150989259256 0.036736125094574981 0.11677764193904389 -0.03576029377019227 -0.032094592944098534 -0.038253443871772576 0.081211937756750147 0.05031793228822079 0.039398081238914702 0.032421451752960594 -0.047596015079474446 -0.035852944523310337 0.015332355750284824 -0.0076236465928885755 -0.016281614165352582 0.011694076416391121 0.11018968818464255
leaf_weight=1832.947511728853 462.82527115941048 560.63916677236557 95.388160288333893 34.114951573312283 27.43672925978899 230.49895098060369 1116.0909548848867 230.58320277929306 70.250263884663582 365.70314783602953 90.953266970813274 115.96522034704685 55.711648195981979 43.049144245684147 130.60774946212769 66.79066289961338 47.589287549257278 110.78391286730766 618.81315880268812 2114.5405163690448 228.16344728320837 2315.6216470077634 97.544277638196945 3305.7824879959226 3020.0335573777556 2090.6365851983428 1266.9024857282639 3709.4867978096008 50.703984819352627 568.20941776037216
leaf_count=31131 6004 4088 1317 541 408 3235 17755 3131 1079 4262 1263 1879 639 451 1816 690 598 1499 9397 20944 2957 27726 1438 54345 49138 28014 18027 55130 431 4787
internal_value=-0.000264482 0.0325943 0.049764 -0.0259067 0.0902944 0.0256022 -0.0131031 -0.0160112 0.0399593 0.0423581 -0.0214999 0.0102868 0.0758444 0.0773628 0.00288026 0.0446212 0.0428551 0.0140112 -0.0170721 0.0793385 0.0165934 0.0377403 -0.0182889 -0.041456 -0.0348101 0.0189761 -0.00324635 -0.0149521 0.117744 0.10409
internal_weight=25074.4 10990.6 9157.68 14083.7 3420.29 5737.39 7723.81 7260.98 2961.34 2865.96 5632.89 2776.05 2240.74 2213.3 1628.09 2795.7 2728.91 2545.55 4516.8 2157.59 2429.58 2363.21 4425.84 6359.93 3054.15 2318.8 1397.51 3807.03 1179.55 618.913
internal_count=354120 136135 105004 217985 31748 73256 113961 107957 35672 34355 84983 37584 22442 22034 22974 33276 32586 34349 67228 21395 32470 28324 65965 104024 49679 30971 19843 56568 9306 5218
cat_boundaries=0 41 82 123 164 190 231 421 632 837 1042 1082 1291 1331 1367 1394 1433
cat_threshold=0 0 2048 1048640 0 524320 0 2 0 0 0 0 8192 2048 18432 537919488 16777280 0 536870912 3 1 2097152 65600 64 0 0 0 0 1310720 0 0 0 8192 0 0 16777216 0 16384 0 2048 83886080 0 67108928 0 16 0 4194304 128 1024 2048 4194304 524288 2147483664 134217728 1048576 0 1048576 262144 16777216 8 65536 0 536870912 0 65 0 262152 0 262144 268435456 0 0 0 1025 134217728 0 0 0 0 0 256 1 128 0 0 1074790400 0 8 0 2281701376 0 524292 0 262144 0 0 0 0 2056 0 65536 0 0 0 0 32770 0 1048576 1077936640 603979776 268443648 65540 0 536870912 0 33554432 69206016 8388608 0 67108864 0 0 134217728 1024 0 16 0 0 2 0 2048 134217728 256 131072 16384 1073750016 2097152 0 4194304 0 0 262156 64 0 0 0 0 268435456 0 0 0 268435456 655360 0 64 0 4096 0 0 16 67371008 0 0 1 0 270976 0 0 0 0 1310720 8 16392 0 0 0 0 0 0 1073741824 33816613 2 0 16777216 5259264 1115684864 16777280 2 1073741824 1073741825 134217728 0 256 0 256 0 139264 8912896 1073741824 4 0 0 0 0 0 138412096 67108872 768 0 0 16777216 0 0 16 4 256 4194304 67108880 1048576 65540 0 2097152 0 0 0 0 0 134217728 0 536870912 704643072 0 0 0 0 16384 0 32 0 0 0 0 8388608 0 0 0 0 0 512 0 0 536870912 0 0 0 0 0 0 0 536870912 4096 0 0 0 0 0 0 16 16 0 524288 0 0 0 0 0 0 0 2147483648 0 0 0 0 16777216 2097152 0 0 0 0 8 0 0 0 0 0 0 0 0 0 0 0 134217728 0 16384 268435456 0 0 0 0 0 0 0 0 0 0 0 0 0 0 0 0 0 0 0 0 0 0 0 8192 0 0 0 0 0 0 8389632 0 16777216 0 4 0 0 0 2097152 0 0 0 0 4 8192 0 0 0 0 0 0 0 0 0 0 0 0 0 0 0 0 0 0 268435456 0 0 0 0 0 0 0 0 256 0 0 0 2147483648 0 0 0 0 0 0 0 0 0 0 0 0 0 0 0 0 0 0 0 1 0 0 0 0 0 0 0 0 0 0 0 0 0 0 0 0 0 8192 4194304 0 0 0 0 0 0 0 0 0 268435456 0 0 0 0 0 0 0 4096 0 0 0 0 0 0 32 0 0 0 0 0 16777216 0 0 0 0 0 0 0 0 0 16777216 0 0 0 0 0 8388608 0 0 4194304 0 0 0 0 0 4194304 0 0 0 0 0 0 0 0 0 1 1073741824 0 0 285212672 0 0 0 0 0 0 0 0 0 67108864 0 0 0 0 0 16777216 0 0 0 0 0 0 256 0 0 0 2048 0 0 0 0 0 0 0 0 0 0 131072 0 0 0 262144 2097152 0 0 0 0 0 0 0 0 0 0 0 134217728 0 0 262144 0 65536 0 0 0 0 0 0 0 0 0 8192 0 0 0 0 0 0 0 0 0 0 0 0 0 0 0 0 0 0 0 1073741824 0 0 0 0 0 0 0 0 64 0 2097152 128 0 0 0 0 0 0 0 0 0 0 0 0 0 512 0 0 262144 0 0 16777216 0 0 0 0 65536 0 0 0 0 0 0 0 0 0 0 0 0 0 2048 0 0 0 0 0 0 0 2 0 16384 0 0 0 0 524288 0 0 0 0 0 0 0 0 0 0 0 0 0 0 0 0 0 0 65536 2147483652 262144 0 0 0 0 0 0 0 0 0 0 0 0 8192 0 536870912 0 0 0 0 0 0 0 0 0 0 0 0 0 0 0 134217728 262144 0 8192 0 4 0 0 0 0 0 0 0 0 0 0 0 0 0 0 536870912 0 0 516 0 0 0 0 0 32768 512 0 0 0 0 0 0 0 0 0 1073741824 0 0 4 0 0 0 0 0 0 0 0 8192 0 0 0 0 0 0 0 0 0 0 0 0 0 0 0 0 0 0 0 0 536870912 0 0 0 0 0 0 0 16 0 0 0 0 0 0 0 4096 0 512 0 0 0 0 0 0 0 0 0 0 0 0 1024 0 0 0 0 0 0 0 0 0 0 0 0 0 0 4194304 0 0 0 0 0 0 0 0 0 0 0 131072 0 0 0 0 0 134217728 512 0 0 0 0 8 0 0 0 16777216 0 0 0 0 0 0 0 0 0 0 0 0 0 0 0 0 0 0 0 0 4096 0 0 0 0 16384 8388609 0 0 0 0 134217728 0 0 0 0 0 0 0 0 0 0 0 2097152 268435456 0 6291456 0 0 0 0 0 0 0 0 0 0 0 0 0 0 8192 0 0 0 0 0 0 0 0 0 0 0 0 0 0 0 0 0 0 0 256 0 64 0 0 0 0 0 0 0 0 0 0 0 0 0 0 0 0 0 0 0 0 0 0 0 0 32768 0 0 0 0 0 0 0 0 0 0 0 0 0 0 0 0 0 0 65 0 0 0 0 0 4096 32768 0 0 0 0 0 0 0 0 0 0 0 0 0 0 0 0 0 0 0 0 0 0 0 0 0 0 268435456 0 0 0 0 0 0 0 0 0 0 0 0 0 0 16384 0 0 0 8388608 4 0 0 0 0 0 0 131072 0 0 0 0 262144 0 16777216 32 268435776 2097408 16777216 540688 4 0 2048 0 0 0 2147483648 0 0 0 0 67108864 528 0 268435456 16777218 0 33280 34078720 0 65536 32 0 268435456 0 1073741824 256 0 0 4 0 0 134217728 0 67108864 0 0 0 0 0 0 4 0 0 512 0 0 0 0 1 0 0 0 0 8192 4096 268435456 0 0 131073 8 0 0 0 0 0 0 0 0 0 0 0 0 0 0 0 0 33554432 0 0 0 0 4096 0 0 256 0 0 0 0 0 0 0 0 4194304 0 0 0 0 0 0 0 0 0 0 0 0 0 0 0 0 0 0 0 0 0 0 0 0 0 0 0 0 0 0 0 4 0 0 0 0 17825792 0 0 0 0 0 0 0 0 0 0 0 0 0 0 0 0 0 0 0 0 0 0 0 0 8 0 0 0 0 0 262144 0 4456448 0 0 0 131104 32768 0 0 0 0 0 0 0 0 0 0 0 0 0 0 0 0 0 0 0 0 536887296 65536 1048576 0 0 0 0 0 0 0 0 0 0 0 0 0 16777216 0 0 0 0 0 0 0 0 0 0 0 65536 0 2097152 0 0 0 0 0 0 2 0 0 0 0 0 0 0 0 0 0 0 0 0 0 0 16 2560 64 0 64 82184 4194304 2097152 1048576 9 263168 0 2147483648 0 262144 0 0 69632 0 0 131072 0 0 1048576 0 0 0 64 8388608 1048576 0 520 0 3072 0 0 0 0 0 256 1610612736 32768 1074266112 67108868 16384 33554432 335544324 8264 134217760 4 0 0 1 16 0 0 37750784 1073872904 0 0 0 0 0 1152 2048 128 256 0 0 8192 0 0 0 0 0 0 4 0 33624064 8192 1024 33554432 1 268435456 0 8208 528384 2048 33587202 0 128 0 0 256 268501000 0 0 1077936256 65537 1048576 0 512 67108864 8390720 0 268435456 67108864 25165824 0 0 131072 525312 1 0 131072 0 0 0 0 2147483712 131074 0 4 0 0 0 32768 134217728 536870912 8389632 4194304 0 805306368 1048580 1073741824 0 0 0 0 0 33587200 134217728 1048576
is_linear=0
shrinkage=0.05


Tree=5
num_leaves=31
num_cat=15
split_feature=1 1 1 1 1 1 9 8 9 8 8 8 9 9 9 9 10 10 7 10 10 8 9 1 10 8 3 8 9 10
split_gain=7617.69 5569.4 3100.76 995.515 486.196 395.326 382.036 267.661 197.375 186.281 176.208 161.454 155.227 150.311 149.074 138.896 126.889 124.407 121.753 117.864 112.94 108.354 107.595 104.68 113.214 98.2563 97.2163 91.1162 90.9695 88.2244
threshold=9.2500000000000018 1.0150000000000003 3.9250000000000003 18.500000000000004 2.3750000000000004 6.2500000000000009 0 0.11615058460747781 1 0.027510784833118852 0.038008747280638105 0.011906449326718601 2 3 4 5 6 7 0.013799010277883503 8 9 0.24684873949579833 10 35.000000000000007 11 0.29556962025316463 12 0.022347066167290854 13 14
decision_type=2 2 2 2 2 2 9 2 9 2 2 2 9 9 9 9 9 9 2 9 9 2 9 2 9 2 9 2 9 9
left_child=1 -1 4 6 28 8 -2 10 -4 -10 -8 -6 -13 -7 -11 -9 -16 -15 -12 -14 -20 -18 -19 24 -5 -21 -17 -24 -3 -22
right_child=3 2 5 23 11 13 7 15 9 14 18 12 19 17 16 26 21 22 20 25 29 -23 27 -25 -26 -27 -28 -29 -30 -31
leaf_value=-0.053006748483674981 0.028230541249010283 0.024714241510381495 -0.032909280453619662 0.050225632066136963 -0.04880794701196213 0.049284745454735664 -0.0404265861879822 0.054604884319544536 -0.027880194030829288 0.070261818107157398 -0.053415292358427027 -0.0085944389133185313 -0.013531235820573379 0.052397408117947679 -0.038043512928681772 0.031279440353825648 0.033903972036114068 -0.030140544018411177 0.033335399420651543 0.070082563769432782 0.022031578935739725 0.15602736232933315 -0.041680588743400249 -0.047184734709214589 -0.035105435126936084 0.22145865054654609 -0.0087364870697273153 0.0066129847175249029 0.10594928101875048 -0.017659553987021862
leaf_weight=1749.3710053861141 502.77665860950947 59.993057638406754 106.72128354385495 32.656235575675964 30.396047875285149 180.49144247174263 954.61726119369268 123.8744832277298 114.15457629412413 312.18109306320548 217.81870020925999 71.931651324033737 46.460643641650677 112.05997450649738 55.795999310910702 183.49694766849279 2622.1430289000273 244.07314845919609 109.19493561983109 2574.4792441576719 138.33364269137383 18.28974786400795 102.6014269888401 3171.2787234336138 2930.262794919312 10.764607071876524 693.99931474775076 2031.6888608038425 1216.7999767810106 4310.5646905638278
leaf_count=31131 6408 458 1507 496 471 2345 15762 1672 1782 3545 3443 820 478 1495 714 2456 30874 3505 1512 24418 1988 167 1732 54345 49183 98 9798 27532 8848 65137
internal_value=-0.000292497 0.0292433 0.043761 -0.0260537 0.0776814 0.0207027 -0.0134901 -0.0166233 0.0324731 0.0347019 -0.0208156 0.065785 0.0670733 0.0064716 0.037192 0.00720232 0.0329801 0.00315817 -0.0168958 0.0689123 -0.0151506 0.0346188 0.000628521 -0.0408713 -0.0341139 0.0704404 -0.000110428 0.00427136 0.103156 -0.0163788
internal_weight=25029.3 11660.4 9911.03 13368.9 4010.83 5900.2 7234.68 6731.9 3229.29 3122.56 5730.53 2734.03 2703.64 2670.91 3008.41 1001.37 2696.23 2490.42 4775.91 2631.7 4558.09 2640.43 2378.36 6134.2 2962.92 2585.24 877.496 2134.29 1276.79 4448.9
internal_count=354120 141920 110789 212200 35591 75198 108176 101768 38589 37082 87842 26285 25814 36609 35300 13926 31755 34264 72080 24994 68637 31041 32769 104024 49679 24516 12254 29264 9306 67125
cat_boundaries=0 41 82 123 163 204 243 448 655 865 1055 1096 1305 1331 1371 1576
cat_threshold=0 0 2048 1048640 33554432 524320 0 2 0 0 0 2048 8192 2048 2048 16384 16777280 0 0 3 1 0 65600 64 0 0 0 0 1310720 0 0 0 8192 0 134217728 16777216 0 16384 0 2048 83886080 131072 68157472 0 0 1073741824 0 128 1024 2048 4194304 524288 0 0 0 0 1048576 262144 16781312 0 65536 0 0 8192 65 8 262144 0 262144 268435456 0 0 65536 9 134217728 0 0 0 68157440 0 0 1 1024 67108864 16 0 0 134217730 524352 2048 134217728 0 131072 16384 1073750016 0 0 0 0 536870912 12 64 32 0 0 0 268435456 0 1 0 268435456 524288 0 64 0 0 1048576 2147516416 16 67371008 0 2097152 1 2560 64 0 0 256 4194304 2105344 1048576 5 263168 0 2147483648 0 262144 1024 0 65536 0 0 0 0 536870912 1048576 0 0 0 0 8 68419584 32 520 32 2048 256 0 0 0 0 256 1610874880 134217728 0 256 4194304 131072 0 131072 8912896 1073741824 0 0 0 0 0 0 134217792 67108864 256 0 0 16777216 0 0 16777216 4 288 536870912 75497488 1048576 65540 134217728 2097152 2048 0 0 0 0 136314880 0 1073741824 671088640 163872 8388866 66052 0 16388 335545348 8 1152 0 4 0 0 0 0 0 4196352 4 0 65536 0 16809984 0 1024 0 0 0 0 0 8192 1073741824 0 0 4096 0 0 4 0 33554432 65536 0 0 0 0 0 0 0 0 8192 0 0 0 8192 0 0 0 0 0 0 0 0 0 0 0 0 0 2147483648 0 0 4096 0 2147483648 0 65536 16384 1 0 0 0 0 134217728 0 0 4194304 0 0 0 0 0 4194304 0 0 3145728 0 0 2097152 0 0 0 0 0 0 0 0 0 0 0 0 0 0 0 0 0 0 0 0 0 0 0 0 0 0 0 0 0 0 0 0 0 0 256 0 64 0 131072 0 8192 0 0 0 0 0 0 0 0 0 0 0 0 16384 0 0 0 0 0 0 0 32768 0 0 0 0 0 0 131072 0 0 0 134217728 0 0 0 0 0 0 0 1 0 0 512 0 0 4096 32768 0 0 0 0 0 0 0 0 0 0 0 0 0 2048 0 0 0 0 0 0 0 0 0 0 0 0 0 0 67108864 0 0 0 0 0 0 0 0 0 0 0 0 16 0 0 0 0 0 0 0 0 0 0 0 0 0 0 0 0 0 0 16777216 0 0 0 0 0 0 33554432 0 0 524288 0 0 0 0 0 0 0 0 0 0 0 0 0 1048576 0 0 0 0 0 262144 262144 0 0 0 2 0 0 0 0 0 16384 0 0 0 0 0 0 128 512 4 0 0 0 0 0 0 0 0 0 0 0 0 0 0 0 0 0 0 0 0 4096 0 0 0 0 0 0 0 0 0 0 0 0 0 0 0 0 0 134217728 0 1048576 0 0 0 0 0 0 4096 0 0 0 0 0 0 0 0 0 0 0 0 0 0 0 0 0 0 0 0 0 0 0 0 0 0 1048576 0 536870912 0 0 0 0 0 0 4 0 0 268435456 0 16896 8192 0 0 0 0 0 16384 0 0 0 0 0 0 0 0 0 1056 0 0 0 0 0 0 0 0 0 0 0 0 0 0 0 0 0 0 0 0 0 0 0 0 0 0 0 0 0 0 16 0 0 8388608 4 0 0 0 0 0 0 0 0 0 0 0 0 8388608 0 0 1048576 0 0 0 16 0 0 0 0 0 272629760 0 0 0 0 0 0 0 4096 0 0 0 0 0 0 0 0 0 0 0 0 16777216 0 0 0 0 0 0 0 0 0 16777216 0 0 0 0 0 0 0 0 37748736 0 0 0 0 0 4194304 0 0 0 0 0 0 0 0 0 0 0 0 0 16777216 0 0 0 0 0 0 0 0 0 67108864 0 0 0 0 0 0 0 0 0 0 8388608 0 0 0 0 0 0 0 0 0 0 0 0 0 0 0 0 131072 0 0 262144 262144 2097152 0 0 0 0 0 0 0 0 0 0 0 134217728 0 0 262144 0 0 0 0 0 0 0 0 0 0 0 8192 0 0 0 0 2147483648 0 0 0 0 0 0 0 0 0 0 4194304 0 0 0 0 0 0 0 0 0 0 0 0 0 0 0 128 2 0 0 0 0 0 0 0 0 0 0 0 0 512 0 0 262144 0 0 16777216 0 0 0 65536 65536 0 0 0 0 0 0 0 0 0 0 0 0 3072 0 2048 0 0 0 0 32 0 0 0 0 0 0 0 0 0 0 512 0 0 536870912 0 0 0 0 0 16 0 536870912 4096 0 0 0 0 0 0 524288 16 0 0 0 0 0 0 0 0 0 2147483648 0 0 0 0 16777216 0 0 65536 0 0 0 0 0 0 0 0 0 0 0 0 134217728 0 134217728 0 536870912 268435456 0 0 0 0 0 0 0 0 0 0 0 8388608 0 0 0 0 0 0 0 0 0 0 0 8192 0 0 0 0 0 0 8389632 0 16777216 0 0 0 0 0 0 0 0 0 2048 4 8192 0 0 0 0 0 0 0 0 0 0 0 0 0 0 0 0 0 0 268435456 0 0 0 0 0 0 0 0 0 0 4 0 2147483648 0 0 0 0 0 0 0 0 0 0 0 0 0 0 0 0 0 0 0 0 0 0 0 0 0 0 0 0 0 32768 0 0 0 0 0 0 0 8192 4194304 128 256 0 1073741824 0 8 0 134217728 0 8212 6 65536 0 0 0 0 4 0 16842752 0 0 0 256 34078720 0 1048576 536870912 0 268444672 0 0 603979776 0 33554432 2097152 0 33554432 71303168 65536 0 536870912 0 0 0 0 0 0 4 0 0 512 0 0 0 0 1 0 0 0 0 8192 4096 268435456 0 0 131073 8 0 0 0 0 0 0 0 0 0 0 0 0 0 0 0 0 0 0 0 0 0 4096 0 0 256 0 0 0 0 0 0 0 0 4194304 0 0 0 0 0 0 0 0 0 0 0 0 0 0 0 0 0 0 0 0 0 0 0 0 0 0 0 0 0 0 0 4 0 0 0 0 17825792 0 0 0 0 0 0 0 0 0 0 0 0 0 0 0 0 0 0 0 0 0 0 0 0 8 0 0 0 0 0 262144 0 4456448 0 0 0 32 32768 0 0 0 0 0 0 0 0 0 0 0 0 0 0 0 0 0 0 0 0 536887296 65536 1048576 0 0 0 0 0 0 0 0 0 0 0 0 0 0 0 0 0 0 0 0 0 0 0 0 0 65536 0 2097152 16777216 0 0 0 0 0 2 0 0 0 0 0 0 0 0 0 0 0 0 0 0 0 16 0 514 0 0 270532608 134217728 9699328 0 0 256 8192 33558528 0 16 0 1073741824 39 2 2 8192 5242880 1082130432 16777232 1 1073742848 1 131072 0 67108864 0 1073807360 4 32768 536871936 0 64 0 0 0 0 0 128 2 5 262146 0 0 524288 40960 0 536870912 536871936 0 0 268435464 1048580 0 0 0 524288 0 0 0 4194304 0 2147483648 0 0 0 0 16384 524288 0 0 262144 0 8192 0 0 0 0 0 0 0 0 0 0 0 0 0 0 0 0 524288 0 0 0 0 0 0 0 0 16 0 0 524288 0 0 0 0 0 512 0 0 0 0 0 0 0 0 0 0 4194304 0 0 0 0 0 0 0 0 0 0 0 0 524288 0 524288 16384 0 0 0 0 67108864 0 0 0 0 0 0 0 0 536875008 0 0 0 0 0 0 524288 0 4096 0 0 268435456 0 0 0 0 0 0 0 0 0 0 0 0 0 0 4096 0 0 2 0 65536 0 0 268435456 0 0 0 0 0 0 0 0 0 0 0 131072 0 0 0 0 0 0 0 0 0 0 0 0 256 0 0 0 0 0 0 0 0 0 0 0 0 0 0 0 0 0 0 0 0 0 0 0 536870912 0 0 0 0 262144 0 262144 0 4 0 0 0 0 0 0 0 0 0 32 2 0 0 0 0 0 0 0 0 0 0 0 0 0 262144
is_linear=0
shrinkage=0.05


Tree=6
num_leaves=31
num_cat=16
split_feature=1 1 1 1 1 9 1 8 9 9 8 8 10 9 8 9 10 8 9 10 10 3 9 10 1 10 8 9 10 1
split_gain=6867.11 4968.95 2526.06 966.074 398.316 353.736 340.63 259.767 170.861 167.926 165.566 142.919 142.676 140.62 135.785 135.574 127.991 117.936 113.593 112.469 111.372 110.282 108.464 106.998 105.493 111.519 104.558 99.3579 99.2157 97.9813
threshold=9.2500000000000018 1.0150000000000003 3.9250000000000003 18.500000000000004 2.6500000000000008 0 5.7500000000000009 0.052367632975084712 1 2 0.15590277777777778 0.025158227848101254 3 4 1.0000000180025095e-35 5 6 0.011906449326718601 7 8 9 10 11 12 35.000000000000007 13 0.022347066167290854 14 15 1.8750000000000002
decision_type=2 2 2 2 2 9 2 2 9 9 2 2 9 9 2 9 9 2 9 9 9 9 9 9 2 9 2 9 9 2
left_child=1 -1 4 5 20 -2 9 -7 -9 -4 12 -11 -10 -8 -15 -6 -13 -17 -18 -16 -3 -14 -22 -23 25 -5 -24 -21 -19 -28
right_child=3 2 6 24 15 7 13 8 10 11 -12 16 21 14 19 17 18 28 -20 27 22 23 26 -25 -26 -27 29 -29 -30 -31
leaf_value=-0.05283444828047678 0.028555739211302247 0.0082553107969373721 -0.028017822657809083 0.044989959896062526 -0.018024166467872898 -0.034022100408975318 -0.028864144839206091 -0.037144540459707866 0.038136324676918569 -0.030748748194811749 0.035199433298846054 -0.028543219756630402 0.024435297044975171 -0.05326688603940119 0.054400659848620997 -0.049584886602959954 0.070640665150858831 -0.014152241901433608 0.03454554773258621 0.041226101478383757 0.010283395594048108 0.039997831842747522 -0.039462700570902745 -0.014209083811398735 -0.04677231486268691 -0.034514720883548913 0.1094269890471973 0.0075884712961244664 0.060824623068870987 0.084505196240675623
leaf_weight=1669.3428947031498 471.05284145474434 57.981660827994347 107.2760381065309 38.424981400370598 61.565496865659952 1531.3476242050529 227.58516655489802 532.31594075262547 142.65145971998572 80.826221436262131 217.16536297649145 69.49923150986433 198.87242445349693 79.504595912992954 146.20387990027666 25.066327046602964 259.43856015056372 48.046746388077736 2252.6700911298394 232.524368789047 57.425356820225716 84.366580482572317 14.948052641004322 3972.1522109769285 3042.545533452183 2837.3040094673634 611.2813549041748 2544.2515183836222 2249.4078378230333 1111.530725069344
leaf_count=31131 5844 427 1484 575 695 25441 3307 8480 1882 1287 2866 855 2894 1382 1861 404 2747 475 25456 2921 453 1178 166 59591 54345 49104 3824 33898 20561 8586
internal_value=-0.000314059 0.0271539 0.0401975 -0.02534 0.0697524 -0.0129716 0.0193248 -0.0159194 -0.0105649 0.0321904 -0.00740264 0.0345917 -0.00952307 0.00829274 0.0111681 0.0562368 0.0367714 0.058033 0.0385386 0.012959 0.0871403 -0.0111841 0.0891456 -0.0129861 -0.0402824 -0.033416 0.0916779 0.0105431 0.0594598 0.0933478
internal_weight=24974.6 11906.4 10237 13068.2 4237.25 7149.92 5999.78 6678.87 5147.52 2769.71 4615.21 2662.43 4398.04 3230.07 3002.48 2384.09 2581.61 2322.52 2512.11 2922.98 1853.17 4255.39 1795.19 4056.52 5918.27 2875.73 1737.76 2776.78 2297.45 1722.81
internal_count=354120 141920 110789 212200 35591 108176 75198 102332 76891 31829 68411 30345 65545 43369 40062 22135 29058 21440 28203 38680 13456 63663 13029 60769 104024 49679 12576 36819 21036 12410
cat_boundaries=0 41 82 123 316 357 397 602 643 847 1051 1078 1118 1323 1532 1572 1776
cat_threshold=0 0 2048 1048640 0 524320 0 2 0 0 0 2048 8192 2048 18944 536887296 16777280 0 0 3 1 0 65600 64 0 0 0 0 262144 0 0 0 8192 0 134217728 16777216 4096 16384 1048576 2048 83886080 0 268435456 2097152 16777216 65552 0 557056 0 1 0 0 0 0 0 256 0 67108866 784 0 524352 0 0 1073742336 4718592 0 0 0 0 335675392 0 0 33554688 1024 2048 0 0 0 0 32 1140850688 8388608 0 67108928 0 1040 1073741824 4194304 128 1024 0 4194304 0 2147483664 0 18087936 0 1048576 262144 16777216 8 65536 0 536870912 0 0 8 262144 0 0 268435584 16384 0 0 1 0 0 0 0 1048576 0 0 1 0 2048 0 0 0 0 32 0 0 0 0 0 0 0 0 0 0 512 0 0 0 0 4194304 0 0 0 0 0 0 528384 16777216 0 0 0 0 0 0 16 0 0 2 0 0 0 0 0 0 2147483648 0 0 0 0 0 0 0 0 0 0 0 0 0 0 0 0 0 4194304 0 0 0 0 134217728 0 0 0 0 0 0 0 0 128 0 0 0 0 0 0 16 0 0 0 0 0 0 0 0 0 0 8192 0 8388608 0 16 0 0 0 0 16777216 0 0 0 0 0 16512 0 0 0 2048 0 8192 0 0 268435456 1048576 512 0 0 0 0 0 0 0 0 0 0 0 0 0 0 0 0 0 0 0 0 0 0 0 0 0 134217728 0 134217728 33554432 0 0 0 0 0 0 0 8192 0 0 0 0 0 0 0 0 0 0 0 0 0 0 8192 0 0 0 0 0 0 0 0 0 0 0 0 0 0 0 0 2 128 256 0 0 0 8 0 2147483648 0 0 0 1024 0 0 0 512 0 0 65536 0 0 0 524544 33554434 0 1048640 1073742336 0 268444672 98308 32 536870912 0 33554432 2097152 0 0 71303168 0 2214658048 536870912 9216 0 16 0 0 2 524352 0 0 0 131072 16384 1073741824 0 0 0 0 0 0 0 0 128 0 4096 268435456 536870920 0 64 268435456 262144 0 1048640 2048 4194304 0 2147483650 16 262144 0 2228224 0 0 0 0 8 0 0 0 8192 0 0 2 0 0 0 0 0 0 0 0 0 0 0 0 0 0 0 0 0 4096 0 2147483648 0 0 0 8388609 0 4 0 0 0 0 0 0 0 0 0 1024 0 0 0 0 1048576 0 0 0 0 0 0 0 0 0 0 0 0 0 0 0 0 0 0 0 0 0 0 0 0 0 0 0 0 0 0 0 0 67108864 0 0 0 0 16640 0 64 0 0 0 0 0 0 0 0 0 0 0 0 0 0 0 0 16384 0 0 16 0 0 0 0 0 0 0 0 0 0 0 0 0 0 0 134217728 0 0 0 0 0 0 0 32768 0 0 512 0 0 4096 32784 0 0 4 0 0 0 0 0 0 0 0 0 0 2048 0 0 0 0 0 0 0 0 0 0 0 0 268435456 0 0 0 0 0 0 0 0 0 0 0 0 0 0 0 0 0 0 0 2048 0 0 0 0 0 0 0 0 0 0 0 327680 0 16777216 134217728 0 256 0 131328 0 131072 8912896 1073741824 4 0 0 0 0 0 4194368 67108864 256 0 0 0 0 0 16 4 288 4194304 67108880 1048576 65540 0 2097152 2048 0 0 0 0 134217728 0 0 671088640 0 0 0 0 0 0 0 0 0 0 0 0 0 0 0 0 0 0 0 0 0 268435456 0 0 0 0 0 0 0 1073741824 262144 0 0 0 2 0 0 0 0 0 16384 0 0 0 0 0 0 1048576 0 4 0 0 0 0 0 0 0 0 2048 0 0 0 0 0 0 1073741824 0 0 2097152 0 4096 0 0 0 0 0 0 0 0 0 0 0 0 0 0 0 0 0 0 0 1048576 0 0 0 131072 0 0 4096 512 0 0 0 0 0 0 0 0 0 0 0 0 0 0 0 0 0 0 0 0 0 0 0 0 0 1048576 0 0 0 0 0 0 0 0 0 65536 0 0 0 16384 8192 268435456 0 0 0 0 0 0 0 0 0 0 0 0 0 0 1024 268435456 0 0 0 0 0 0 0 0 0 0 0 0 0 0 0 0 0 0 0 0 0 0 0 0 0 0 0 0 0 16 0 0 8388608 4 0 4 0 0 0 0 0 0 0 2097152 8192 0 8388608 0 0 0 0 0 262144 0 0 0 0 128 1073741824 0 0 0 0 0 0 0 0 0 0 0 0 0 0 0 0 0 0 0 16384 0 0 0 0 0 20 0 0 16386 0 0 0 0 0 0 128 0 0 0 0 0 2 0 0 0 0 0 0 0 0 262144 0 0 0 0 0 0 0 33554432 0 0 0 0 0 0 67108864 0 0 0 0 0 0 0 0 536870912 0 0 0 0 0 0 0 0 0 0 0 512 0 0 0 0 0 0 0 0 0 0 0 0 0 0 1 0 0 0 0 0 0 0 0 0 128 0 0 0 0 0 327680 0 0 0 0 0 4 0 0 8388608 0 0 2 0 32768 2097152 0 0 0 0 0 0 2048 0 0 0 0 0 0 0 1073741824 0 0 0 0 0 0 0 0 0 0 2097152 0 0 0 0 0 0 0 0 0 0 0 0 0 0 0 0 0 0 0 0 0 0 0 0 0 0 0 0 0 0 524288 262144 32768 0 33560578 8192 16384 0 0 524288 0 0 524320 0 33554688 4096 0 0 67108864 16649 268435458 0 16777216 4210944 0 16777216 2048 512 201326593 2120 32768 0 67108864 0 1073741824 67108864 32768 536870977 0 524544 0 16 0 0 0 4194432 1073741826 0 545521664 64 0 0 0 268435456 0 1024 0 134217728 268435584 64 0 33554432 0 0 0 16777216 0 0 0 67108864 0 0 0 0 0 524288 0 0 0 0 8192 8388608 0 0 0 268435456 0 0 0 0 0 0 0 0 0 0 0 0 536870912 0 0 0 0 0 0 0 16 0 0 524288 0 0 0 0 0 512 0 0 0 0 0 0 0 0 0 65536 0 0 0 0 0 0 16384 0 0 0 0 0 1024 0 0 0 536870912 0 0 0 0 67108864 0 0 0 0 0 0 0 8388608 0 0 0 0 0 0 67108864 0 0 0 0 0 0 0 0 0 0 0 0 0 0 0 0 0 0 0 1048576 32768 0 0 0 0 65536 0 0 0 0 0 0 0 0 0 134217732 0 0 0 0 131072 0 0 0 268435456 0 0 0 0 0 0 0 0 0 0 0 0 2147483648 2048 0 0 0 0 0 0 0 0 0 0 0 0 0 0 0 0 0 0 536870912 0 0 0 0 262144 0 262144 0 0 32768 0 0 0 0 0 0 0 8192 32 0 0 0 0 0 0 1073741824 0 0 0 0 0 0 0 262144 0 0 0 0 0 0 4 0 0 0 0 0 0 0 1 0 0 0 0 8192 4096 268435456 0 0 131073 8 0 0 0 0 0 0 0 0 0 0 0 0 0 0 16777216 0 33554432 0 0 0 0 4096 0 0 256 0 0 0 0 0 0 0 0 4194304 0 0 0 0 0 0 0 0 0 0 0 0 0 0 0 0 0 0 0 0 0 0 0 0 0 0 0 0 0 0 0 0 0 0 0 0 17825792 0 0 0 0 0 0 0 0 0 0 0 0 0 0 0 0 0 0 0 0 0 0 0 0 8 0 0 0 0 0 262144 0 4456448 0 0 0 131104 32768 0 0 0 0 0 1073741824 0 0 0 0 0 0 0 0 0 0 0 0 0 0 536887296 65536 1048576 0 0 0 0 0 0 0 0 0 0 0 0 0 0 0 0 0 0 0 0 0 0 0 0 0 65536 0 2097152 2048 0 0 0 0 0 2 0 0 0 0 0 0 0 0 0 0 0 0 0 0 0 16 2048 64 0 0 16640 4194304 0 0 13 263234 0 2147483648 0 262144 1024 0 65536 0 8388608 0 16777472 536870912 0 4194304 0 0 0 8 67108864 32 520 32 3072 0 0 0 0 0 4096 1610612736 0 0 0 0 0 0 0 0 0 272629760 0 0 0 0 0 0 0 0 0 0 0 0 0 0 2 0 0 0 0 0 0 0 0 0 4 0 0 0 0 0 16777216 0 0 0 0 0 0 134217728 4 4194304 0 0 0 0 0 4194304 0 0 0 0 0 0 0 0 0 0 1073741824 0 0 268435456 0 0 0 0 0 0 0 0 0 0 0 0 0 0 0 0 0 0 0 0 0 0 512 0 0 0 0 0 0 0 0 0 0 0 0 0 0 0 0 0 0 0 0 0 0 0 0 0 4096 0 0 0 0 0 134217728 0 0 262144 0 65536 0 0 0 0 0 0 0 0 0 8192 0 0 0 0 2151677952 0 0 0 0 0 0 0 0 0 0 0 0 0 0 0 0 0 0 0 0 0 268435456 0 0 0 0 128 2 0 0 0 0 0 0 0 0 512 0 0 0 0 134217728 0 262144 0 0 0 0 0 0 0 0 0 0 0 0 0 0 65536
is_linear=0
shrinkage=0.05


Tree=7
num_leaves=31
num_cat=16
split_feature=1 1 1 1 1 9 1 8 9 9 10 8 9 9 8 8 8 10 8 10 3 1 10 10 10 9 10 10 10 8
split_gain=6201.33 4456.01 2086.33 936.168 354.516 317.973 267.558 247.023 166.727 163.812 145.257 144.568 137.03 126.598 126.005 121.5 111.475 110.223 107.729 106.918 105.411 104.418 104.189 103.129 97.9158 97.0557 95.6863 95.1596 92.2526 87.3394
threshold=9.2500000000000018 1.0400000000000003 3.7250000000000005 18.500000000000004 5.7500000000000009 0 2.2250000000000005 0.052367632975084712 1 2 3 0.011906449326718601 4 5 1.0000000180025095e-35 0.18898809523809523 0.013289183222958001 6 0.24684873949579833 7 8 35.000000000000007 9 10 11 12 13 14 15 0.18399271132524161
decision_type=2 2 2 2 2 9 2 2 9 9 9 2 9 9 2 2 2 9 2 9 9 2 9 9 9 9 9 9 9 2
left_child=1 -1 6 5 8 -2 -3 -7 -4 -9 -11 -10 -8 -6 -15 20 -14 -16 21 -18 -12 22 -5 -13 -25 -26 -19 -27 -22 -29
right_child=3 2 4 18 13 7 12 9 11 10 15 23 16 14 17 -17 19 26 -20 -21 28 -23 -24 24 25 27 -28 29 -30 -31
leaf_value=-0.052646545445027886 0.028072166598574751 0.084711774755390976 -0.024046016670606598 0.044199549242044833 -0.027126187945701454 -0.033152794786977878 -0.010485192818243535 -0.037631455424083436 -0.049511168706499346 0.042274377026245674 0.026203793424200435 -0.037286170086150136 -0.045637475992699517 -0.053097560244465714 0.052177897783748595 0.057198795137560432 -0.01346582546672364 -0.029791515642620371 0.11044798893121693 0.060940804511620088 0.033853949535494532 -0.046620129494111727 -0.034151453602224123 -0.029145241688355694 0.062022278942856626 -0.020945991178164231 0.011938732994013527 0.033760535409214622 -0.012497450958672581 0.09063575721030083
leaf_weight=1593.6421327479184 445.11687507852912 1227.8962036594748 127.80207787826657 36.748792093247175 231.50435365736485 1491.0505733117461 78.185508564114571 477.8135198391974 51.516981940716505 134.80638136714697 187.20594049617648 43.457075379788876 25.361135996878147 75.700169753283262 154.22662135958672 68.906472824513912 52.478535987436771 136.06443561241031 11.923101153224705 2663.9652880653739 101.43871987611055 2913.9533322975039 2749.2123448438942 52.703816518187523 370.52269502356648 75.40172728151083 2654.2583658881485 2446.0556505843997 4163.0602253004909 69.415552817285061
leaf_count=31136 5597 7709 1756 545 3423 25489 807 7868 867 1722 2678 531 418 1379 1880 822 502 1844 217 22307 1349 54244 49018 596 3719 849 34843 26749 62651 605
internal_value=-0.000331516 0.025276 0.0370617 -0.0246345 0.0194885 -0.0124711 0.0652309 -0.0152148 0.0312025 -0.010034 -0.00710536 0.0334434 0.0567485 0.00782802 0.0105621 -0.00866794 0.0584906 0.0122346 -0.039689 0.0596781 -0.00970694 -0.040003 -0.0330819 0.0349505 0.0359962 0.0372497 0.00980472 0.0334822 -0.0113183 0.0351901
internal_weight=24911.4 12130.2 10536.5 12781.2 6488.63 7069.4 4047.89 6624.28 3236.88 5133.23 4655.42 3109.07 2819.99 3251.75 3020.25 4520.61 2741.8 2944.55 5711.84 2716.44 4451.7 5699.91 2785.96 3057.56 3014.1 2961.4 2790.32 2590.87 4264.5 2515.47
internal_count=354120 141920 110784 212200 79041 108176 31743 102579 35672 77090 69222 33916 24034 43369 39946 67500 23227 38567 104024 22809 66678 103807 49563 33049 32518 31922 36687 28203 64000 27354
cat_boundaries=0 41 82 123 328 369 410 614 825 852 1061 1266 1470 1511 1715 1926 2135
cat_threshold=0 8388608 2048 1048640 33554432 524320 0 2 0 0 0 67584 8192 2048 18944 16384 16777216 0 0 1 0 0 65600 64 0 0 0 0 1310720 0 0 0 8192 0 0 16777216 4096 16384 1048576 0 83886080 0 67108928 0 16 0 4194304 128 1024 0 4194304 524288 2147483664 0 17825792 8388608 1048576 262144 0 8 65536 0 536870912 0 0 8 8 0 262144 268435456 16384 0 65536 1025 2147483648 0 134217732 0 128 0 256 1 0 268435456 2097152 16777216 65552 0 557056 0 1 0 0 0 0 0 256 0 67108864 784 0 524352 0 0 1073742336 524288 1073741824 0 0 0 335675392 0 0 33554688 0 2048 0 0 0 0 32 1140850688 8388608 0 2048 0 0 0 0 32 0 0 0 0 0 0 0 0 0 0 512 0 0 0 0 4194304 0 0 0 0 524288 0 4096 16777216 0 0 0 0 0 0 16 0 0 2 0 0 0 0 0 0 2147483648 0 0 0 0 0 0 0 0 0 0 0 0 0 0 0 0 0 4194304 0 0 0 0 0 0 0 0 0 0 0 0 2097152 128 65536 0 0 64 0 0 16 0 0 0 0 0 0 0 0 0 0 8192 0 8388608 0 16 0 0 0 0 16777216 0 0 0 0 0 16512 0 4096 0 0 0 0 0 0 0 1048576 0 0 0 0 0 0 0 0 0 0 0 0 0 0 0 0 0 0 0 0 65536 0 0 0 0 0 134217728 536870912 0 33554432 0 0 0 0 0 0 0 0 0 0 0 0 0 0 0 0 0 0 0 0 0 0 8192 0 0 0 0 0 0 0 0 0 0 0 0 0 0 0 0 2 0 0 0 0 67108864 0 0 0 0 0 0 16 1024 524800 16 0 0 0 0 0 134217728 524544 0 0 1073750016 2162688 0 4194304 0 0 262144 64 0 0 0 0 0 8 1073741824 0 268435456 1179648 0 64 0 0 0 2164260864 0 67371008 0 2097152 134217729 128 256 0 0 0 8 0 2147483648 0 4 0 1024 0 0 0 512 8 0 65536 0 0 0 524544 2 0 1048640 1073742336 0 268444672 65540 32 536870912 0 33554432 2097152 0 0 67108864 65536 2147549184 536870912 0 0 0 0 0 0 0 0 0 0 0 0 0 0 0 0 0 0 0 0 0 268435456 0 0 0 0 0 0 0 1073741824 262144 0 0 0 2 0 0 0 0 0 16384 0 0 0 0 0 0 1048576 0 4 0 0 0 0 0 0 0 0 2048 0 0 0 0 0 0 1073741824 16777216 0 2097152 0 0 0 0 0 0 0 0 0 0 0 0 0 0 0 0 0 0 0 0 0 1048576 268435456 0 0 131072 0 0 4096 512 0 0 0 0 0 0 0 0 0 0 0 0 0 0 0 0 0 0 0 0 0 0 0 0 0 1048576 0 0 0 0 0 0 0 0 0 65536 0 0 0 16384 8192 268435456 0 0 0 0 0 0 0 0 0 0 0 0 0 0 1024 268435456 0 0 0 0 0 0 0 0 0 0 0 0 2147483648 0 0 0 0 0 0 0 0 0 0 0 0 0 0 0 0 16 0 0 8388608 4 0 4 0 0 0 0 0 0 0 2097152 8192 134217728 8388608 0 0 0 16 0 0 0 0 0 268435456 0 0 0 0 0 0 0 0 0 0 0 0 0 0 32 0 0 0 0 0 16777216 0 0 0 0 0 0 0 0 0 16777216 0 0 0 0 0 0 0 0 4194304 32768 0 0 0 0 4194304 0 0 0 0 0 0 0 0 0 0 1073741824 0 0 16777216 0 0 0 0 0 0 0 0 0 67108864 0 0 0 0 0 16777216 0 0 0 0 0 0 0 0 0 0 0 0 0 0 0 0 0 0 1024 0 0 0 0 0 262144 0 0 0 0 0 0 0 0 0 0 0 0 128 0 8192 536870912 262144 0 65536 0 0 0 0 0 0 0 0 0 0 0 0 0 0 0 0 0 0 0 0 0 0 0 0 0 4194304 0 0 0 1073741824 0 0 0 0 0 0 0 0 64 0 0 128 512 0 0 0 0 0 0 0 0 0 0 0 0 512 0 0 262144 0 0 16777216 0 0 0 0 65536 0 0 0 0 0 262144 0 0 0 0 0 0 0 2048 0 33558528 8192 16384 0 0 540672 64 0 524320 2097152 33554688 4096 0 0 67108864 16665 2 0 0 1073758464 65536 16777216 132096 512 335544321 8 0 0 0 0 0 0 0 0 0 524800 0 0 0 0 1 0 0 0 0 8192 4096 268435456 0 0 131073 8 0 0 0 0 0 0 0 0 2048 0 0 0 0 0 0 0 0 0 0 0 0 0 0 0 256 0 0 0 0 0 128 0 0 4194304 0 0 0 0 0 0 0 0 0 0 0 0 0 0 0 0 0 0 0 0 0 0 0 0 0 1 0 0 0 0 0 4 0 0 0 0 16777216 0 0 0 0 0 0 0 0 0 0 0 0 0 0 0 0 0 0 0 0 0 0 0 0 8 0 0 0 0 0 262144 0 4456448 0 0 0 32 32768 0 0 0 0 0 0 0 0 0 0 0 0 0 0 0 0 0 0 0 0 536887296 0 1048576 0 0 0 0 0 0 0 0 0 0 0 0 0 16777216 0 0 0 0 0 0 0 0 0 0 0 0 0 2097152 16777216 0 0 0 0 0 2 0 0 0 0 0 0 0 2 0 0 0 0 0 0 0 16 0 0 0 0 8 0 0 0 16777216 0 0 0 0 0 0 67108864 0 0 0 0 0 0 0 0 0 0 0 0 0 4096 0 0 0 0 540672 1 0 0 0 0 134217728 0 0 0 0 0 0 0 0 0 536870912 0 0 0 0 0 0 0 0 0 0 0 0 0 0 0 0 0 0 0 0 0 0 0 0 0 0 0 0 0 0 0 0 0 0 67108864 4096 0 0 0 536871168 0 64 0 0 0 0 0 0 0 0 0 0 0 0 0 0 0 0 16384 0 0 0 0 0 0 0 32768 0 0 0 0 0 0 0 0 0 0 0 0 0 0 0 0 0 0 0 0 0 0 0 0 4096 0 0 0 0 0 0 0 0 0 0 0 0 0 0 0 0 0 0 0 0 0 0 0 0 0 0 0 268435457 0 0 0 0 0 0 0 0 0 0 0 0 0 0 16384 0 0 0 8388608 2052 524288 0 0 0 0 0 131072 0 0 0 0 262144 0 16777216 0 0 0 0 0 262144 0 32768 0 4096 0 65538 0 0 0 0 0 0 0 0 134217728 0 0 0 8 0 2147483648 0 0 0 0 0 0 0 0 8388608 0 0 0 0 16384 0 0 4194304 0 0 8388610 0 0 0 0 0 2097152 16384 0 0 16384 0 0 0 0 0 0 0 0 0 0 0 0 0 0 524288 0 0 0 0 0 0 0 0 0 0 0 0 0 0 0 0 0 0 16384 0 0 0 0 0 33554432 0 0 0 0 0 0 0 0 0 0 0 0 0 262144 0 0 0 256 0 131072 0 0 0 0 0 0 0 0 0 0 0 0 0 0 0 0 0 0 0 0 2048 134217728 524288 0 0 0 16384 536870912 0 0 0 0 0 0 0 33554432 0 0 0 16777216 0 0 0 0 0 0 0 0 0 0 0 0 0 0 33554432 0 0 0 0 0 0 0 0 0 0 0 0 0 0 0 0 0 0 0 0 0 0 0 0 0 0 0 0 0 0 65536 512 134217728 0 256 0 256 0 139264 8912896 0 0 0 0 0 0 0 138412096 67108872 768 262144 0 16777216 0 0 16 4 256 4194304 67108880 1048576 65540 134217728 2097152 0 33554432 0 0 0 134217728 0 0 704643072 0 0 0 0 0 0 0 34 0 4210688 0 2 0 0 0 0 0 0 0 0 0 0 0 0 0 0 0 0 0 0 0 0 0 0 2147483652 0 512 0 0 0 0 0 0 0 0 0 0 0 0 0 536870912 0 0 0 0 0 0 0 0 0 0 0 0 0 0 0 134217728 262144 0 8192 0 4 0 0 8192 0 0 0 0 0 0 0 0 0 0 0 536870912 0 0 4 0 65536 0 0 0 32768 0 0 0 0 0 0 0 0 0 0 0 0 4194304 4 0 0 0 0 0 0 0 0 8192 0 0 0 0 0 0 1024 0 0 0 0 0 0 0 0 0 0 0 0 0 0 0 0 0 0 0 0 0 16 0 134217728 0 0 65536 0 0 4096 0 512 0 0 0 0 0 0 0 0 0 0 0 0 1024 0 0 0 0 0 0 0 0 0 0 0 0 0 0 4194304 0 0 0 0 0 0 0 0 0 0 0 131072 0 0 0 0 0 134217728 0 0 0 0 0 0 0 0 0 0 0 0 0 0 0 268435456 16777216 0 0 0 0 0 0 0 0 0 0 0 0 0 0 0 0 0 0 0 0 0 0 0 0 0 0 0 0 0 0 1024 131076 0 1140867072 0 0 268435456 0 39845888 0 0 0 0 0 0 0 0 0 0 0 64 0 262208 0 0 0 0 0 0 0 0 0 0 0 0 0 0 0 0 0 0 134217728 0 1024 0 0 0 0 0 0 0 0 0 0 262144 0 0 0 0 0 0 0 0 0 0 0 0 0 0 0 0 0 0 0 0 0 0 0 0 0 0 0 0 0 0 0 0 0 0 64 0 512 0 0 0 0 32784 0 0 4 0 0 0 0 0 0 0 0 0 0 0 0 0 0 0 0 0 4096 0 0 0 0 0 0 1 1024 0 0 0 0 0 0 0 0 0 0 0 0 0 0 0 0 0 0 268566528 0 0 0 0 0 0 0 0 0 0 0 0 0 0 2048 0 0 0 2048 0 0 0 0 0 524288 0 0 0 0 8192 8388608 0 0 0 268435456 0 0 0 0 0 0 0 0 0 0 0 0 536870912 0 0 0 0 0 0 0 0 0 0 524288 0 0 0 0 0 512 0 0 0 0 0 0 0 0 0 0 0 0 0 4194304 0 0 16384 0 0 0 0 0 1024 0 134217728 0 536870912 0 0 0 0 0 0 0 0 0 0 0 0 8388608 4096 0 0 0 0 0 67108864 0 0 0 0 0 0 0 0 0 0 0 0 0 0 0 0 0 0 0 0 2 0 0 2048 0 73728 0 0 0 0 0 0 0 0 0 134217728 0 0 0 0 131072 0 0 0 268435456 0 0 0 0 4096 0 0 0 0 0 0 0 0 0 8192 0 0 0 0 0 0 0 0 0 0 0 0 0 0 0 1024 0 0 0 0 0 0 0 0 0 0 0 32768 0 0 65536 0 0 0 0 8192 0 0 0 0 0 0 0 0 0 0 0 0 0 0 0 0 0 524288 0 8388608
is_linear=0
shrinkage=0.05


Tree=8
num_leaves=31
num_cat=18
split_feature=1 1 1 1 1 9 8 8 1 9 9 9 9 3 10 9 9 10 10 10 8 10 1 9 9 10 8 10 3 1
split_gain=5616.88 3930.95 1870.44 844.578 372.077 322.867 229.051 225.446 202.2 158.39 146.302 146.215 140.951 138.669 129.971 129.509 127.235 121.963 121.903 116.417 114.944 111.968 106.911 97.6443 96.1314 95.7923 95.2887 90.012 88.1469 88.1188
threshold=9.7500000000000018 1.0150000000000003 4.2250000000000005 18.500000000000004 2.8500000000000001 0 0.052367632975084712 0.018957771787960404 6.2500000000000009 1 2 3 4 5 6 7 8 9 10 11 0.033354728284124904 12 35.000000000000007 13 14 15 0.022347066167290854 16 17 1.7250000000000003
decision_type=2 2 2 2 2 9 2 2 2 9 9 9 9 9 9 9 9 9 9 9 2 9 2 9 9 9 2 9 9 2
left_child=1 -1 4 5 16 -2 -7 -4 9 -9 -8 -6 -10 15 -15 -12 -3 -18 -11 -14 -13 -22 25 -21 -20 -5 -19 -26 -23 -28
right_child=3 2 7 22 11 6 10 8 12 18 13 20 19 14 -16 -17 17 26 24 23 21 28 -24 -25 27 -27 29 -29 -30 -31
leaf_value=-0.052514978830950312 0.027862560354660344 0.0039495781482228945 -0.042603147876974258 0.042243323497811243 -0.019584436167365993 -0.033488814390370776 -0.037109641065971866 -0.02775579502638973 -0.030278481999784175 -0.02882808770662661 0.081794251443288835 -0.010545154241414521 0.054178489055002638 0.045910270231853484 -0.011769844327999456 0.0069122850799707737 -0.00070884255201839486 -0.041883233292594385 0.057489218952719107 0.040367266450535094 -0.01951370749459105 -0.0057777561521316946 -0.04594159234863808 0.0043963060630356661 -0.035510484270806497 -0.033066162419063135 0.094126248370962534 0.027727556567860717 0.049814686811421004 0.069568079043296302
leaf_weight=1519.4752785041928 451.04963339492679 84.99029852822423 171.36059560999274 36.608248177915812 91.417635399848223 1390.3454901613295 456.00346241146326 129.04291463270783 230.65506429225206 86.436991635710001 62.214390281587839 91.154483426362276 130.16706503555179 90.857664059847593 3875.7086264714599 321.27372586354613 66.690401270985603 17.725710652768612 287.06413515657187 195.6368115991354 62.696478754281998 79.356292210519314 2801.6894039623439 2400.6549538895488 51.328226622194052 2676.2884702458978 456.9497307986021 2227.2086620889604 2480.7594137303531 1820.6340731307864
leaf_count=31131 5570 641 3123 529 1011 24472 7719 1719 3465 1018 831 1198 1600 1168 58617 4575 479 212 2978 2417 601 710 54345 32341 623 49150 2499 24716 21918 12744
internal_value=-0.000347801 0.0229348 0.0332058 -0.0246246 0.0549164 -0.0126237 -0.0155906 0.0139095 0.0155972 0.0252755 -0.0104452 0.0424876 0.00649496 -0.00754743 -0.0103365 0.0208306 0.0691655 0.071194 0.0278555 0.0096815 0.0444867 0.0465689 -0.039091 0.00725129 0.0298697 -0.0320161 0.0732772 0.0261541 0.0480757 0.0744952
internal_weight=24843.4 12681.4 11161.9 12162 5252.37 6647.45 6196.4 5909.56 5738.19 2781.08 4806.06 2805.38 2957.11 4350.05 3966.57 383.488 2446.99 2362 2652.04 2726.46 2713.97 2622.81 5514.59 2596.29 2565.6 2712.9 2295.31 2278.54 2560.12 2277.58
internal_count=354120 147144 116013 206976 42013 102952 97382 74000 70877 31054 72910 25438 39823 65191 59785 5406 16575 15934 29335 36358 24427 23229 104024 34758 28317 49679 15455 25339 22628 15243
cat_boundaries=0 41 81 122 164 205 232 441 480 521 724 921 1126 1329 1369 1410 1619 1824 1851
